2241 128
</s> 0.003127 0.003453 -0.002992 -0.002561 0.001068 0.002360 0.000735 0.000165 -0.002815 0.001733 -0.003403 0.000976 -0.000587 -0.000748 -0.002590 -0.001470 0.002015 0.002364 0.002320 0.001248 0.001207 -0.002971 -0.003200 0.003883 0.002970 0.002414 -0.000472 0.003137 -0.000387 0.000574 -0.000117 -0.002331 0.001025 -0.001045 -0.002989 0.003714 0.003421 -0.000856 -0.000177 0.000398 -0.002842 -0.003131 0.003558 0.000049 -0.002017 -0.002377 -0.002403 0.001326 0.000157 0.001040 -0.003292 -0.002975 -0.000102 0.000893 0.001992 -0.002477 0.003187 0.000724 0.000875 -0.000475 0.002333 -0.001787 -0.001639 0.001686 -0.000588 0.000805 0.001410 -0.003194 -0.001549 0.002276 0.003306 0.003072 -0.002380 -0.001647 -0.000710 0.001564 -0.002960 0.002342 0.002178 -0.001249 -0.001212 -0.001749 0.003304 0.003056 -0.000922 0.003293 0.003766 0.001418 0.003893 -0.002431 -0.001197 -0.001646 -0.002271 0.002199 0.001234 0.000332 -0.001714 0.001191 0.002390 0.000151 0.001781 -0.003869 0.003371 0.000375 -0.001431 -0.001628 -0.000584 -0.002293 -0.003414 -0.002216 0.003341 -0.001383 -0.002093 0.001810 -0.001331 0.003716 -0.001254 -0.003585 0.002122 -0.000058 -0.002726 0.000762 0.001127 -0.000376 0.001425 -0.003092 0.000688 0.001419 
593 -0.029405 -0.189186 0.196993 -0.295976 0.103924 -0.184900 -0.050202 -0.437563 -0.113660 0.018707 -0.058703 -0.542530 -0.052028 -0.201271 0.250751 -0.552877 -0.165649 0.620419 0.425501 0.312827 -0.206160 0.075508 -0.393542 0.195437 0.032135 0.230315 0.015730 -0.602036 0.066378 0.313286 -0.352231 0.111639 0.221617 -0.432172 0.510466 -0.410010 0.439227 0.184116 0.030760 0.063566 -0.136047 -0.108107 -0.387874 -0.826617 -0.282692 -0.131933 0.075906 -0.194597 0.067434 -0.025397 0.212771 -0.119114 -0.163768 -0.162971 -0.103638 -0.233099 -0.216078 0.065352 -0.304843 0.297208 0.546883 -0.177736 -0.188476 0.307092 0.330808 0.462761 0.124089 -0.338986 -0.349963 0.006505 -0.008071 -0.095514 -0.396520 0.126050 0.199554 -0.630934 0.261167 0.265727 0.043804 -0.152075 0.417804 0.313183 -0.335185 -0.220832 -0.104903 -0.150089 0.127840 -0.214313 0.684339 -0.494368 0.081146 0.315772 0.154429 -0.163561 0.345055 0.567101 0.135587 0.692243 -0.049361 0.087782 -0.058233 0.739308 0.159581 -0.243569 0.388967 0.463847 -0.248820 0.426209 -0.256662 -0.099679 0.079104 0.738346 -0.225796 0.140982 0.322188 0.033453 0.198695 -0.145814 0.071716 0.016544 -0.240191 -0.381734 0.039179 -0.204559 -0.243696 -0.041457 0.652817 0.152754 
318 0.223073 0.142452 -0.084398 -0.363991 0.042203 -0.317200 -0.094135 -1.076821 -0.374458 0.077424 0.532129 -0.366829 0.481368 -0.314781 -0.171430 -0.229427 -0.143232 -0.138636 0.363482 0.307708 -0.104165 0.034130 -0.230087 -0.383418 0.155198 0.367613 0.081994 -0.442213 -0.109687 0.064810 0.350931 0.370197 0.362253 -0.248395 0.238556 0.007586 0.192578 -0.194526 0.327906 -0.270217 -0.032042 0.097319 -0.256298 -0.182881 -0.382837 -0.122393 -0.253416 0.541063 0.334332 0.446981 -0.219896 -0.174504 -0.016016 -0.115324 0.352526 0.439552 -0.344960 -0.329756 -0.006553 -0.165127 0.248794 -0.621515 -0.069437 0.116950 0.114285 0.608816 -0.306804 -0.266018 0.056365 0.398100 -0.136545 0.321583 0.143894 0.146747 -0.134533 -0.209992 0.083191 0.710347 0.194355 0.329886 -0.166261 0.058864 -0.587637 0.142449 0.078800 -0.112687 -0.472375 -0.033199 0.854622 -0.347351 -0.166431 0.459047 -0.170598 -0.234347 0.320263 0.272238 -0.072699 0.249357 0.086288 0.167931 -0.032914 0.168081 -0.378764 -0.253255 -0.132732 -0.001694 -0.014123 0.308983 -0.201800 -0.046037 0.135132 0.662049 0.004698 0.086269 0.283809 0.614288 -0.023283 0.151778 0.015807 0.039225 -0.384342 -0.012839 -0.163446 -0.044276 0.311604 -0.003792 0.055261 0.059860 
296 0.292912 0.071060 -0.254458 -0.264216 0.239882 -0.441760 -0.321628 -0.849963 -0.357973 0.337632 0.443062 -0.048341 0.015418 0.160847 0.039526 -0.012051 -0.026509 -0.065823 0.350122 0.239217 0.050903 0.341405 0.097307 -0.054622 0.118996 0.514461 0.570644 -0.307446 0.347285 0.470941 0.373415 0.281244 -0.084395 0.063254 0.120684 -0.160127 0.178562 0.126818 0.119538 -0.386561 -0.081070 0.055525 -0.407471 -0.131956 0.427961 -0.351272 -0.186357 0.399874 0.210717 0.338181 -0.132019 -0.535727 -0.035059 -0.006235 0.380122 0.170105 -0.410150 -0.268132 0.242814 -0.115741 0.146928 -0.409979 0.352583 0.156877 0.151012 0.908949 -0.123470 -0.222466 0.171171 0.095090 -0.211306 0.189499 -0.052293 0.240720 0.013380 -0.336543 0.099427 0.236497 0.030445 0.384088 0.254861 -0.171484 -0.698259 0.024088 0.450489 0.403652 0.222138 -0.184058 0.968827 -0.280365 0.088045 0.098271 -0.120053 -0.096099 0.121403 0.332915 -0.025005 0.521921 -0.015333 -0.160397 0.192087 0.615284 0.325349 -0.070692 -0.117814 -0.067073 0.014101 0.460946 -0.126634 -0.119018 0.154223 0.199281 -0.206928 0.211567 0.378615 0.317247 0.287121 -0.081727 -0.651650 0.196731 -0.253561 0.112941 0.026909 0.443773 -0.089661 0.077049 0.503574 0.288121 
260 -0.230332 0.593540 -0.229001 0.024998 -0.092215 0.306851 -0.010451 -0.482300 -0.143780 0.162550 0.218266 -0.733328 0.478315 -0.479211 -0.652218 0.119631 0.189652 -0.154896 0.568116 0.239169 -0.107593 -0.002934 -0.006876 0.044200 0.098442 -0.043457 0.359639 -0.447042 0.284912 0.129693 0.191951 0.391165 0.296801 0.027784 0.327484 -0.420658 0.045239 -0.005937 0.281829 -0.197770 -0.081114 0.205168 0.001733 -0.499461 0.194321 -0.365383 -0.101988 0.064220 -0.253776 0.207897 -0.561290 0.261448 0.112930 -0.542776 -0.072788 0.123559 -0.202554 0.210872 0.102533 -0.368386 -0.317439 0.196618 0.282503 0.163492 0.327974 0.447157 0.138656 -0.343724 -0.030743 -0.103588 -0.130218 0.086805 -0.323317 0.367294 0.015557 -0.382195 -0.005266 0.086957 0.073673 -0.046627 0.111285 -0.038491 -0.590125 0.372819 -0.103740 0.113568 -0.264455 -0.021648 0.551305 -0.495886 0.296748 0.249215 0.121460 0.059658 -0.128887 0.219453 -0.039339 0.615979 0.118597 0.402224 -0.320355 0.349274 0.295062 -0.433338 0.265025 0.047302 -0.181011 0.219807 0.339399 -0.106801 0.015160 0.511510 0.274589 0.286970 0.488272 0.142241 -0.141878 0.174731 -0.506043 0.012209 -0.510093 -0.056832 -0.312762 0.320140 0.014053 0.342564 0.417393 0.373809 
356 -0.043427 0.149231 -0.189384 -0.274724 -0.006725 0.221368 -0.581243 -0.909463 0.178170 0.159693 0.534485 -0.003884 0.210915 0.311434 -0.353828 0.345261 0.036569 -0.069309 0.201974 0.577231 -0.490738 -0.258521 0.022849 0.058179 0.278960 0.227966 0.153460 -0.519133 -0.090952 0.272346 0.250553 0.685958 -0.154201 -0.245517 0.257014 -0.246922 -0.529207 0.145710 -0.000051 -0.062091 0.070173 0.075636 0.165161 -0.460165 0.005110 -0.236632 0.150360 0.225545 0.250522 0.267484 -0.223675 -0.053038 -0.189943 -0.135312 -0.029014 0.133101 -0.164353 0.167134 -0.249107 0.144404 0.344116 -0.271819 0.069426 0.525017 -0.052324 0.372624 -0.148793 -0.391063 0.185615 -0.008330 0.029175 0.250993 -0.077803 0.038945 0.126673 -0.209723 0.661881 0.319486 0.054647 0.393328 0.072976 0.073162 -0.776848 0.312209 0.284576 0.388116 0.136998 -0.297103 0.673832 -0.319668 -0.230571 0.501441 -0.107986 0.097253 -0.145241 0.572352 -0.045053 -0.001421 -0.136813 0.048131 -0.297184 0.699592 -0.395975 -0.263543 0.319510 0.169576 0.327129 0.392599 0.072492 -0.074347 0.008025 0.326477 -0.379888 0.277031 0.074778 0.412403 0.253565 -0.305480 -0.239222 -0.212490 -0.456196 -0.044250 -0.225259 -0.075621 -0.177036 0.545115 0.285326 0.046773 
527 0.134019 -0.065314 0.467786 -0.322647 -0.040645 -0.202838 0.087561 -0.398507 0.162104 -0.341940 0.547807 -0.238103 0.150239 -0.035811 0.048595 -0.029313 -0.257097 -0.010106 0.217044 0.179378 -0.107547 0.035199 -0.241264 -0.312962 0.240475 0.396940 0.420350 -0.622873 -0.275037 0.066327 -0.124134 -0.026666 0.065701 -0.289623 0.652867 -0.526506 0.328814 0.084763 0.122798 -0.450712 0.118317 0.299855 -0.057917 -0.320103 0.099103 -0.128412 -0.304074 -0.277031 -0.044179 0.287427 -0.090810 0.019344 -0.287304 -0.306048 0.208510 0.030582 -0.492871 -0.793137 -0.451981 -0.076535 0.279196 0.164002 0.040581 0.932365 -0.205957 0.259046 0.229201 -0.288247 0.282403 -0.356138 -0.419593 0.207943 0.117615 -0.164813 -0.095805 -0.897424 0.421563 0.016795 0.111674 0.220865 0.609430 0.249499 -0.783376 0.152087 -0.120583 -0.051823 -0.165499 -0.207479 0.595626 -0.329005 0.197997 0.117438 -0.157639 0.067587 -0.073440 0.497111 0.281506 0.494951 -0.154685 -0.127504 0.289072 0.410447 0.456995 -0.757659 0.335879 -0.069232 0.238821 0.288591 -0.231972 -0.285689 0.083925 0.764694 -0.038664 0.290201 0.532422 0.253056 -0.214621 -0.216762 -0.157458 0.026988 -0.098239 -0.333898 0.158931 -0.528453 0.227691 -0.291978 0.476803 0.496610 
110 0.529053 0.880243 -0.121814 -0.003251 0.024905 -0.117595 0.004468 -0.893239 -0.397387 -0.080311 0.170191 -0.168880 -0.016594 -0.107133 0.055405 -0.198237 -0.096752 -0.207004 0.088840 0.352222 0.301772 -0.120039 0.265281 -0.248757 0.432518 0.273977 0.074884 -0.843332 -0.027780 0.038788 -0.032007 0.009632 0.122554 0.007255 0.020792 -0.106007 0.002397 0.211873 0.260895 -0.639934 -0.301020 -0.195019 -0.225522 -0.277565 -0.269063 -0.682175 -0.273488 0.138114 0.125049 0.238475 -0.211670 0.069885 0.133460 0.158485 0.251810 -0.493391 -0.270686 -0.060079 -0.073368 -0.112121 -0.280929 0.045479 -0.072991 0.372501 0.042731 0.300947 0.158851 -0.314069 0.537704 0.073358 0.311759 -0.338959 -0.506642 0.044746 -0.170948 -0.521876 -0.068350 0.331571 -0.127494 0.379080 0.065280 -0.549273 -1.138161 0.449013 0.133601 0.301863 -0.038436 0.022270 1.132396 0.053375 -0.061522 0.368875 0.009274 0.036158 -0.344533 -0.158440 -0.109782 0.199651 0.640758 0.017511 0.016246 0.645020 -0.013859 0.161494 -0.227962 -0.035693 -0.516428 0.030594 0.517203 -0.010909 0.163017 0.510390 -0.304075 0.358124 0.040530 0.102689 0.369022 -0.110706 -0.310237 -0.217046 -0.391935 0.195432 -0.052345 0.471745 -0.200812 0.146002 -0.156758 -0.030719 
50 -0.066215 0.615940 -0.292291 0.040082 0.019160 0.279717 -0.276568 -1.062148 -0.393137 0.356673 0.270844 -0.532504 -0.260578 -0.176741 -0.295715 -0.324965 -0.202465 -0.384682 0.651329 0.007523 -0.083388 0.310487 -0.014627 0.200326 0.598413 0.474763 0.482713 -0.761047 -0.358951 0.510368 -0.158377 0.206403 -0.197565 0.204595 0.206573 0.243070 0.271301 -0.260494 0.375379 0.034137 -0.114108 -0.205216 -0.242830 0.182056 0.138911 -0.243485 0.022660 -0.141814 0.183882 -0.228316 -0.428381 0.223950 0.118934 -0.091908 0.267786 0.177205 -0.546836 -0.156353 -0.419953 -0.187123 -0.126456 0.064688 -0.354215 -0.010544 0.334702 0.174832 0.298740 -0.099483 0.479907 -0.401790 -0.000563 -0.005951 -0.523066 -0.191464 0.316227 -0.068669 0.329998 -0.019270 -0.336319 0.015097 0.067650 0.079873 -1.270119 0.370639 -0.122216 0.252577 -0.081025 0.025622 0.828968 -0.264008 0.286206 0.140203 0.188015 0.076639 0.233997 0.074616 0.117675 0.474361 0.839262 0.047516 0.170294 0.675618 -0.405441 -0.310191 -0.247909 -0.258642 0.031739 0.190045 -0.089081 -0.010534 -0.073106 0.494365 -0.388593 0.323908 0.255511 0.102035 0.217208 0.137258 -0.518829 -0.056161 -0.462046 0.071782 -0.156020 0.050990 0.209200 -0.105856 -0.096764 -0.243516 
589 0.256023 -0.445985 -0.271801 0.231107 -0.312311 -0.251289 0.080301 -1.161187 0.160850 -0.012449 0.068723 -0.062078 -0.034223 0.036086 0.226808 -0.152430 0.338956 0.500411 0.346467 0.326749 -0.616386 0.031513 0.006272 -0.290077 0.431746 0.500594 -0.350760 -0.913258 0.125326 0.154765 0.085810 0.342424 -0.182812 0.137678 0.177127 -0.511235 0.182883 0.264542 0.511939 0.038072 0.127968 0.278432 -0.015677 -0.694696 -0.264286 -0.132626 0.268657 -0.163561 0.032206 0.188892 0.155574 -0.219001 -0.292551 -0.178348 -0.010913 -0.195962 -0.357203 -0.050910 -0.056210 -0.003654 0.436676 0.320185 -0.022354 0.237923 0.081588 0.083874 0.515085 -0.434312 -0.312364 0.146537 -0.248776 -0.174206 -0.160205 -0.153195 0.210961 -0.368283 0.230677 0.303741 0.167657 0.522460 0.537822 0.333648 -0.403196 0.255946 -0.384328 -0.192443 0.574418 0.358784 0.499915 -0.025028 0.000714 0.359630 -0.019107 -0.386177 0.480655 0.136150 0.319001 0.450649 0.079304 0.331292 0.126526 0.104386 0.030507 -0.433286 -0.035859 0.394672 0.176038 0.412480 -0.373717 -0.107367 0.596142 0.733369 0.061295 0.452735 0.704767 0.071881 -0.088469 -0.163868 0.006945 -0.001935 -0.455956 -0.150428 0.175039 -0.123924 0.184322 0.014952 0.559460 0.537811 
457 0.395728 -0.215062 0.143575 -0.056919 -0.093265 -0.141447 -0.287447 -0.858391 0.265943 -0.066346 0.403552 -0.348099 0.075365 -0.156200 0.089982 -0.176121 0.145199 -0.087579 0.519277 0.256606 0.020228 -0.186441 -0.355536 -0.480902 0.282822 0.078631 0.435087 -0.560322 -0.053906 -0.225319 -0.093652 0.432097 -0.327023 -0.088889 0.200949 -0.384530 -0.088637 -0.283043 -0.030132 0.197319 -0.239213 0.111001 0.434255 -0.338067 -0.326903 -0.672550 -0.053635 0.176809 -0.052124 -0.061951 -0.023828 -0.024089 -0.149863 0.002185 0.087689 0.141682 -0.347383 -0.453508 -0.118672 0.060154 0.698984 0.143682 -0.106264 0.421476 0.071870 0.108927 0.171618 -0.241859 -0.275207 -0.109629 -0.114951 0.583855 0.047872 -0.079328 0.096756 -0.164403 0.313636 -0.072926 0.170438 0.232741 0.443034 0.147206 -0.781828 0.319942 -0.056692 -0.006175 0.153951 0.089835 1.069718 -0.489341 0.064201 0.433665 0.213011 -0.042246 -0.131587 0.456888 0.029319 0.145976 -0.132784 0.146039 -0.284037 0.348287 0.303816 -0.231722 -0.023399 -0.017286 0.050134 0.241642 0.001508 -0.451398 0.082839 0.972796 -0.129884 -0.108321 0.208747 0.703836 0.807520 -0.185736 -0.324910 -0.401309 0.087086 -0.048147 -0.005322 -0.295477 0.375263 -0.167350 0.278995 0.525834 
1196 -0.178849 0.146485 0.324781 -0.592768 -0.519961 -0.177308 0.386646 -1.439035 -0.448687 0.153130 0.141775 -0.711694 -0.350673 0.498163 0.083439 0.801984 0.257758 0.457038 0.356772 0.061836 -0.127878 -0.219207 0.027271 -0.111046 0.321706 -0.071070 -0.332323 -0.420850 0.225406 0.296214 -0.865026 0.269489 0.367034 -0.112394 -0.156852 -0.509494 0.051999 0.483728 -0.177271 -0.160077 0.507718 -0.198548 0.034937 -0.242473 -0.554242 -0.116294 0.067485 -0.387128 0.216745 -0.109069 -0.078629 0.454031 0.285428 -0.112114 -0.274337 0.472299 0.072444 -0.004701 0.240988 0.145625 0.238897 -0.334963 -0.000953 0.141653 0.182236 0.018271 0.017202 -0.250414 -0.037216 0.341144 -0.111420 0.229552 -0.037400 -0.332079 -0.126172 -0.053048 0.602145 0.276885 -0.263849 0.338574 0.196019 0.286099 -0.178957 0.034160 0.185716 -0.038936 0.508258 0.735068 0.979584 0.029033 0.215729 0.138619 -0.120361 0.563643 0.103933 0.125847 0.161051 -0.157090 0.103005 0.280585 0.077416 0.160016 -0.456539 0.373193 0.050883 0.503629 -0.105229 0.039186 0.097881 -0.342742 0.190452 -0.002238 0.262831 -0.078388 0.019539 -0.333071 -0.153682 0.052911 -0.304690 0.055816 0.095671 -0.302476 -0.175952 -0.136080 -0.099712 -0.083357 0.602149 0.467304 
1210 0.244855 -0.308784 0.310782 -0.064640 -0.286881 0.253537 0.012200 -1.022646 -0.085518 -0.259534 0.075776 -0.512762 -0.949771 0.107948 0.520155 0.008532 0.169724 0.215333 0.706355 -0.206176 -0.272178 -0.479782 -0.461873 -0.311850 0.030676 0.309852 0.009469 -0.334730 0.053090 -0.022364 -0.608441 0.259812 0.317188 -0.217995 -0.212866 -0.989817 -0.072833 -0.397934 0.230213 -0.132728 0.226388 0.226173 -0.084932 -0.076529 -0.269719 -0.009046 0.491703 0.151128 -0.277576 -0.482818 0.272103 0.180702 -0.035496 0.094069 -0.179201 0.764047 0.107016 -0.031919 -0.083442 -0.112870 0.270128 -0.363350 -0.101992 0.642171 0.101351 0.184715 -0.234531 -0.695348 0.375020 0.070080 -0.275473 0.067087 0.169093 0.291780 0.100154 0.095506 -0.044783 0.340030 -0.125434 -0.243757 0.030741 -0.074113 -0.485058 0.133106 0.035547 -0.629889 -0.129726 -0.036055 0.700894 0.114282 0.002985 0.018072 -0.070605 0.227670 -0.023583 0.806672 0.720047 -0.500730 0.546762 -0.357131 0.363434 0.441961 0.692478 0.294675 0.106426 0.421648 -0.355850 -0.487339 0.304380 0.172401 0.062566 0.227667 -0.039199 -0.206154 0.056318 -0.038644 -0.355732 -0.223364 -0.233304 0.182187 -0.018192 0.197120 -0.147925 -0.095105 -0.284178 -0.008559 0.571232 0.555959 
608 0.280375 -0.076868 -0.472331 0.109625 -0.059685 0.253532 -0.150752 -0.910018 -0.424632 0.023829 0.199606 -0.487648 -0.012724 -0.003989 0.183558 0.043091 -0.016854 0.298182 0.696433 0.061085 0.205382 0.125005 0.128173 0.121452 -0.483161 0.023781 -0.145206 -0.574894 0.082864 -0.380979 -0.399961 0.180342 0.216648 -0.476243 0.181166 -0.220521 0.576335 0.473169 0.232389 0.171677 -0.606949 -0.008419 -0.241310 -0.557570 0.066057 0.094830 -0.007929 0.075835 -0.335558 -0.018647 -0.314136 -0.232840 -0.156279 -0.076973 -0.105767 0.065629 -0.486643 0.299597 -0.183480 -0.285770 -0.297313 -0.072020 -0.501770 0.392825 0.711853 0.245825 0.217414 0.040161 -0.443168 -0.001544 -0.114931 -0.078726 0.281631 0.032894 -0.196034 -0.461063 0.569374 0.332811 0.081135 0.103477 0.250548 -0.027222 -0.281904 0.012487 -0.335133 0.107195 0.347126 -0.050352 1.204091 -0.400709 0.254390 0.067321 0.202183 0.207806 0.358289 0.189905 0.238608 0.351790 0.155149 0.026865 -0.180231 0.475356 -0.092617 -0.559792 0.263754 -0.330072 -0.163043 0.031310 -0.540603 -0.294354 0.046178 0.183528 -0.488409 0.209078 0.549319 0.218799 -0.250234 0.128280 0.182333 -0.123807 -0.353416 -0.065380 -0.303456 -0.052740 -0.096934 -0.024768 0.628569 0.333557 
1 0.392985 0.256896 -0.291481 0.041127 0.192711 -0.484911 -0.105479 -0.832745 -0.227836 -0.880478 -0.277994 -0.634520 -0.446983 -0.134496 0.199807 0.102964 0.253006 0.105920 0.771848 0.126825 0.102752 0.038593 -0.105874 -0.012479 0.227425 0.274539 -0.300359 -0.252208 -0.451043 0.650211 0.312994 -0.127736 0.062107 0.107450 0.094120 -0.230584 -0.092624 0.139375 0.730655 0.534272 0.023188 0.359831 0.203287 -0.105833 0.058605 -0.378630 -0.419240 -0.333176 0.114428 -0.002055 -0.196010 -0.385575 -0.153514 -0.556338 -0.101322 -0.068051 -0.643828 0.186105 -0.549061 0.273070 -0.504534 -0.039053 -0.089021 0.169986 0.076572 -0.008143 0.696701 -0.202026 0.188661 -0.304233 -0.459701 -0.155364 -0.123690 0.136421 0.238523 -0.300282 -0.190915 -0.161705 -0.270736 0.293403 0.218814 -0.486030 -1.236160 0.530052 -0.212865 0.553799 -0.056674 -0.109127 0.673499 -0.060387 0.080296 0.208309 0.477396 -0.351322 0.304892 -0.131689 0.014301 0.074002 0.006528 -0.041067 0.094258 0.544196 0.153073 -0.069289 -0.354784 0.390382 0.178915 -0.036766 0.159441 -0.695774 -0.433575 -0.086972 0.162394 0.599910 0.551555 0.077960 0.559023 -0.195779 -0.221458 0.231194 -0.261570 -0.696261 -0.252980 0.408359 0.321080 0.202630 -0.189523 0.486193 
2571 -0.018158 -0.037784 0.350491 -0.525010 0.048471 -0.190187 -0.670860 -0.267281 -0.219693 -0.153765 0.063666 -0.233875 0.046023 0.011634 0.041091 -0.217788 -0.138410 0.142985 0.192799 0.171027 -0.625078 0.341062 -0.314452 0.051906 -0.227701 0.353162 0.194221 -0.478939 0.572984 -0.132344 -0.183382 -0.254657 -0.184291 0.225406 -0.315844 -0.223540 -0.419922 -0.392092 0.356861 -0.158611 -0.331979 0.282266 0.411161 -0.410508 -0.016418 0.257488 -0.061760 -0.757802 -0.017317 -0.411539 -0.027466 0.394203 -0.291130 0.095941 -0.501268 0.645194 0.463906 0.440584 0.002801 -0.186097 -0.028520 -0.504748 -0.136666 -0.209328 -0.138674 0.675789 0.207653 -0.416666 0.144833 0.273157 -0.045289 -0.445546 -0.749247 0.548194 0.079510 -0.378622 0.111891 0.108847 0.043615 0.152187 0.112815 0.145803 -0.978988 -0.302018 -0.114630 -0.352859 0.143576 0.226160 0.547218 0.672247 -0.051373 -0.993372 -0.443756 -0.282126 -0.428027 -0.146969 0.113925 0.032040 -0.347147 0.126499 0.688025 0.179169 0.032561 0.415562 0.525933 -0.669163 0.318848 -0.184099 0.207553 -0.577705 0.359691 0.177931 0.214498 0.301776 -0.184081 0.246361 -0.121287 -0.231839 0.183093 -0.124276 0.119674 0.309834 0.306176 -0.528920 -0.304401 -0.007689 0.148218 -0.059471 
2858 0.554781 -0.737527 -0.237492 -0.156363 0.300098 -0.074982 -0.592240 -0.524807 0.214181 -0.186150 -0.354447 -0.849778 0.156612 -0.087371 0.093434 -0.463556 -0.671518 0.126806 0.091775 0.130869 0.016617 0.884162 0.128263 0.440920 0.149981 0.204243 -0.070390 -0.086995 -0.334420 -0.126397 -0.525568 -0.503216 -0.000102 -0.225134 0.037226 -0.646931 -0.303043 -0.700141 -0.164724 -0.514394 0.205911 -0.325945 0.404137 0.107076 -0.410035 0.138163 0.124208 -0.288011 0.111007 -0.102525 -0.520115 0.215509 -0.231688 0.266335 -0.333354 0.441688 -0.087897 0.216685 0.454109 -0.205189 -0.076330 -0.396513 0.918543 -0.038950 -0.051162 0.513019 -0.273691 -0.102522 0.326171 -0.012642 0.082732 -0.169671 -0.163856 0.190404 0.070325 -0.091334 0.518341 -0.225967 -0.170840 -0.155564 -0.522417 -0.023677 -0.897188 0.046201 0.536101 0.333449 0.246067 0.113358 0.682496 0.442845 -0.527466 0.014730 0.192200 -0.167504 -0.020977 -0.493835 -0.781087 -0.044650 -0.051796 -0.339074 0.035959 -0.169691 -0.158354 -0.014061 -0.047501 0.398994 -0.421052 -0.466158 0.116391 -0.016634 0.690837 0.183204 0.383580 0.437116 -0.146959 -0.213083 0.136380 -0.396778 0.144511 0.272405 0.543945 0.313014 0.248535 -0.045928 0.077651 -0.181066 0.341903 -0.039814 
32 0.479978 0.577083 0.084736 -0.131209 -0.151560 0.111513 -0.291061 -0.871473 -0.292211 0.246496 -0.580401 -0.618786 -0.298098 -0.253528 -0.394067 -0.368771 0.354516 -0.128295 0.619551 0.209645 -0.076022 0.144527 0.321864 -0.162631 -0.158206 0.316030 -0.090818 -0.303179 -0.399496 0.326576 0.515876 -0.105279 0.279342 -0.284209 0.186379 0.234033 -0.088128 0.218569 -0.241006 0.421348 -0.167545 -0.079899 -0.212196 -0.147863 -0.347595 -0.534735 -0.140435 -0.197414 0.291066 -0.183679 -0.166730 0.131612 0.124953 -0.028162 0.195994 0.158168 -0.528983 -0.590917 0.318302 -0.240989 -0.529072 0.060907 0.066328 0.068175 -0.003793 0.633260 0.592586 -0.490150 0.298184 -0.450586 0.021547 -0.362878 -0.288087 -0.245693 0.203492 -0.779546 0.017877 -0.006369 -0.573601 -0.125201 -0.100105 -0.139882 -0.990471 0.479693 0.136111 0.343067 -0.081633 0.067659 0.860953 0.009682 0.437253 0.007942 0.212555 -0.293550 0.136414 -0.055589 -0.155675 0.068016 0.524857 0.405327 0.085683 0.393219 0.400106 -0.296581 -0.029040 0.426855 -0.143203 0.062321 0.474202 0.012710 0.018019 0.393691 -0.417778 0.493060 0.530274 0.476953 0.032265 -0.198573 -0.264302 0.527624 -0.444071 0.056101 0.125259 0.224640 -0.167425 -0.178103 -0.088429 0.308200 
480 -0.135737 0.266059 0.014873 -0.212909 -0.321062 0.201995 -0.018245 -0.799951 0.196729 0.159602 0.393391 -0.011021 0.296156 -0.163536 0.247302 0.200498 -0.088164 0.003742 0.243346 0.504800 -0.485309 -0.298824 0.008560 -0.196524 0.272217 0.446901 0.184910 -0.033763 0.258779 0.107002 0.304885 -0.111956 -0.447358 -0.327057 -0.092867 -0.741991 0.396519 -0.279827 0.192426 0.272605 -0.163667 -0.241453 0.072546 -0.276143 -0.146585 -0.502618 -0.184043 0.340624 0.164777 0.430566 0.206256 0.249990 0.166997 -0.243120 -0.060262 0.266861 -0.380033 -0.265123 -0.515461 -0.106220 0.187315 -0.126963 -0.250463 0.561579 0.092214 0.480976 0.180931 -0.254308 0.041447 0.600079 0.096046 -0.166884 -0.042668 0.288660 0.141256 -0.255669 0.330088 0.124352 -0.230847 0.567612 0.370367 0.477042 -0.777224 0.503585 -0.487130 -0.163829 0.138923 0.106361 0.840273 -0.585965 0.530178 0.420567 0.332624 -0.141413 0.480618 0.201422 -0.041780 0.373246 0.095892 -0.211024 -0.010689 0.123273 0.066477 0.041723 -0.291604 0.601571 0.213504 0.549415 -0.103268 -0.296698 0.513699 0.257551 -0.772108 0.568698 0.626762 0.462130 0.117157 -0.098146 0.044366 -0.236654 0.167555 -0.258432 0.103908 -0.132558 0.463478 0.265772 0.400016 0.371855 
858 0.241022 0.136390 -0.266725 0.418534 -0.058805 -0.222427 -0.136695 -0.790968 -0.384983 -0.478975 -0.013925 -0.792114 -0.110331 0.080289 -0.151564 -0.272842 0.078532 0.000385 0.457913 -0.220812 -0.285743 0.357190 0.245587 0.267565 -0.392288 0.340260 0.137308 -0.190590 -0.183484 0.079170 0.254264 0.727262 0.226093 -0.145963 0.240209 -0.329131 0.603488 0.006777 -0.037513 0.017241 0.194055 0.062473 -0.018658 -0.329966 -0.540788 0.046723 0.418336 -0.063970 0.013074 -0.162550 0.280862 -0.000458 0.030336 -0.035420 -0.333116 0.073781 -0.281047 0.106095 -0.184733 0.167275 -0.176695 -0.250348 -0.121872 -0.369324 -0.174438 0.618249 -0.042225 -0.688300 0.058430 0.227271 -0.163700 -0.125920 0.061697 -0.302818 -0.201457 -0.285162 0.289690 0.010317 0.020579 0.580008 0.481401 0.277726 -0.664686 0.197823 0.048236 -0.122218 -0.183285 -0.372914 1.067495 0.172820 0.166077 0.204514 -0.099051 0.707725 -0.164408 0.241535 -0.031987 0.723167 0.164459 0.294945 0.256558 0.478459 0.150916 -0.304837 -0.172213 0.174350 0.308782 -0.327516 -0.721442 -0.192956 -0.193638 0.471411 -0.132563 0.118777 0.454482 -0.016180 0.021090 -0.041387 0.131410 -0.319654 0.028661 -0.269513 -0.171501 -0.901655 -0.177961 0.196418 0.164646 0.874580 
1198 0.344622 -0.300717 0.124199 -0.104574 -0.446485 -0.178168 0.449504 -0.976910 -0.726701 -0.022559 -0.246457 -0.461494 -0.378439 -0.271565 0.069346 0.083686 -0.018157 0.607271 0.724385 0.200339 -0.004242 -0.507562 0.155266 -0.209358 -0.210605 -0.073216 0.070099 -0.469882 -0.187711 0.084090 -0.676306 0.606033 0.478006 -0.157201 0.324730 -0.597889 -0.126337 0.052189 0.039569 -0.105458 -0.034307 0.304041 -0.262741 -0.286710 -0.478059 -0.116194 0.075975 -0.109028 0.622481 -0.036160 -0.030255 0.267291 -0.024892 0.122933 -0.234263 0.408358 0.161413 0.069702 -0.050502 -0.012260 0.182108 -0.030275 0.037845 0.059907 0.054409 0.353625 -0.554024 -0.258524 0.222616 -0.002605 -0.458855 0.331402 0.292352 0.425921 -0.564165 0.447028 0.746799 0.515618 -0.152206 0.491131 0.730172 -0.008683 -0.271930 0.212574 -0.202166 -0.044073 0.336451 0.186159 0.630382 -0.010485 0.349365 0.011965 -0.045055 -0.196608 0.040165 0.308705 0.200510 0.212469 0.743154 0.092677 0.494996 0.006914 0.046861 0.048762 -0.108085 0.770379 -0.450241 0.135101 0.524804 -0.144115 0.302793 -0.004718 0.128682 -0.107370 0.015811 -0.402130 -0.481531 -0.707899 -0.563933 -0.220533 0.299403 0.064605 0.010749 0.236907 -0.326318 -0.384914 0.455026 0.307820 
150 0.347729 0.376629 -0.314200 -0.453976 0.546509 0.073078 -0.305893 -0.790376 -0.560278 0.067464 0.342683 -0.466999 0.401135 0.036142 -0.151481 0.126504 -0.038651 -0.017185 0.398208 0.324362 -0.156402 -0.342099 0.158870 0.093326 0.467363 -0.242497 0.133638 -0.660896 0.178497 0.159396 0.306395 0.344252 -0.107395 -0.109425 0.323975 -0.263984 -0.057997 0.108981 0.130020 -0.268021 0.252703 -0.067747 0.053449 -0.139290 0.404933 -0.242690 -0.174989 0.012965 0.242005 -0.310530 -0.110246 -0.069738 -0.285948 0.437215 0.487912 0.180948 -0.553540 -0.542923 -0.141371 0.052563 -0.285842 0.187197 -0.196513 0.694494 -0.094890 0.341060 0.100488 0.034740 0.583363 0.117758 -0.025910 -0.195623 -0.411475 0.285010 -0.387335 -0.632337 -0.180964 -0.034275 0.250712 0.275702 0.072005 -0.023114 -1.370965 -0.115612 -0.066852 0.206496 -0.077812 0.042289 0.573751 -0.351128 -0.099153 -0.116288 0.425564 -0.280319 0.075953 -0.120988 -0.103941 -0.000208 0.737918 0.185828 -0.098322 0.036250 0.245922 -0.040128 -0.032494 -0.642461 0.095046 0.310651 -0.139751 -0.002955 -0.117284 0.327976 -0.103791 0.404290 0.072334 0.413467 0.107791 -0.112091 -0.388967 0.360459 -0.336961 0.143630 0.301607 1.062889 0.309140 0.367608 0.330190 0.332541 
47 0.266429 0.732240 -0.617775 -0.391538 -0.150302 0.456454 -0.327180 -0.764146 -0.750022 0.075230 0.143682 -0.769875 -0.088437 -0.443810 0.300518 -0.683324 -0.066555 -0.501024 0.459725 0.139638 -0.360453 0.120056 0.271501 -0.388421 0.093166 0.112546 0.457188 -0.209398 -0.368358 -0.125074 0.215573 0.402688 -0.044229 0.304022 0.162662 -0.074000 -0.112808 0.320251 0.272545 -0.022190 0.061447 -0.090850 -0.356619 -0.283343 -0.106057 0.167115 -0.437936 -0.150058 0.212381 -0.177526 -0.551771 -0.259516 -0.039754 0.059173 0.235365 0.333911 -0.637592 -0.522554 -0.014772 0.198864 -0.236108 -0.388135 0.248091 0.182830 0.094708 0.456495 0.184785 -0.316798 0.153063 0.150472 0.247297 -0.191144 -0.219861 0.052983 -0.058774 -0.590896 -0.077987 -0.029294 -0.343958 -0.061515 0.376017 0.057674 -0.951537 0.281947 0.296674 0.337849 0.063928 -0.064877 0.711327 0.108501 0.288775 0.372961 0.267849 -0.114039 0.315922 -0.652697 0.188576 0.020231 0.730316 0.351454 0.370368 0.641986 0.005713 -0.061401 0.046228 0.184077 -0.441039 0.268723 0.409135 0.010416 -0.118941 0.332906 -0.596335 0.365894 0.315156 -0.012884 0.273007 -0.154386 -0.516255 0.033231 -0.102925 -0.268487 0.102808 0.089367 -0.246568 -0.151985 0.078506 0.143788 
2028 0.041161 -0.298541 -0.063775 -0.336616 0.187772 -0.470584 -0.019973 -0.368691 -0.503463 0.398922 0.353209 -0.112413 -0.315097 0.238637 0.363553 0.202036 -0.149722 0.094468 0.001079 -0.128857 0.030550 0.007910 -0.293673 -0.355997 -0.378326 -0.345182 -0.014133 -0.402888 0.388684 0.008392 0.102320 0.014088 0.227366 0.426172 -0.226729 0.039122 -0.309439 -0.570644 -0.059728 -0.660379 -0.172515 -0.037813 -0.083588 -0.188988 -0.175424 0.538058 0.490947 -0.532642 0.016681 0.006651 -0.597814 -0.077153 -0.169068 0.244785 -0.514628 0.353086 0.276005 0.350830 0.312431 -0.191511 -0.331313 -0.760607 -0.140728 0.887550 0.199342 0.083042 -0.174984 -0.035057 0.120174 -0.215806 -0.362518 -0.838183 -0.372419 0.203941 0.354499 -0.314867 0.168634 0.142945 -0.465139 0.459663 0.492272 0.262886 -1.182615 0.504618 -0.515990 0.191961 -0.664336 0.797903 0.027911 -0.279197 -0.336715 -0.173416 0.303493 -0.237907 -0.210807 0.749546 -0.392433 -0.260865 -0.222162 0.652355 0.005023 -0.362764 -0.079907 -0.005024 0.310951 -0.328354 -0.307872 -0.372899 -0.085910 -0.036611 -0.133010 -0.321908 -0.361749 0.109228 -0.052297 0.014827 0.336065 -0.173154 0.215015 0.327951 0.071812 0.340616 0.257550 -0.501280 -0.190139 -0.013899 0.825536 -0.015505 
590 -0.307553 -0.467425 0.012777 0.004004 -0.206023 -0.047813 -0.542226 -0.606096 0.059466 0.625654 0.579228 -0.669117 -0.253330 -0.349137 0.173321 -0.064383 0.024232 0.255816 0.675365 0.583770 -0.009907 -0.465146 -0.168659 -0.442045 0.012685 0.026773 0.101853 -0.507295 0.441301 0.579961 0.136678 0.168434 0.136198 -0.311324 0.117058 -0.616017 0.395130 0.117812 0.100800 -0.147664 0.092262 -0.392057 -0.203017 -0.593170 0.450586 -0.582823 0.239410 -0.092300 0.032110 0.113141 0.214957 -0.017984 -0.009801 -0.086072 -0.327762 -0.236787 -0.487324 -0.080624 -0.358508 -0.209065 0.266506 0.164691 -0.034268 -0.146130 -0.000211 0.214691 0.376874 -0.907551 -0.475457 0.367128 -0.483556 -0.017784 0.547012 -0.347608 0.163996 -0.668149 0.125635 0.474004 -0.382978 0.394388 -0.139557 -0.013741 -0.853543 -0.336716 -0.247351 0.129963 0.468375 0.318642 0.229796 -0.181249 0.215638 0.338489 0.250124 -0.305563 0.263259 0.252015 0.292421 0.349115 0.164501 -0.103585 -0.065319 0.415735 0.284596 -0.373836 0.404825 -0.123870 0.039120 0.656294 -0.585820 -0.536031 -0.023645 0.777891 -0.188030 0.106881 0.472793 0.210688 0.071124 -0.027616 -0.273811 -0.370190 0.119426 -0.187274 -0.164469 -0.655452 -0.378990 -0.624590 0.446072 0.155705 
780 0.207290 -0.110070 0.080682 -0.010441 -0.094078 -0.153340 -0.183420 -0.802641 -0.196551 0.143233 0.036201 -0.838890 0.071965 -0.009031 -0.079698 0.313487 -0.036319 0.406342 0.479307 0.515684 -0.229787 -0.284918 0.116273 -0.018119 -0.448266 -0.218739 0.139659 -0.212172 0.046148 0.006315 0.425295 0.116951 0.419746 -0.032345 -0.056784 -0.309049 0.143878 -0.325448 0.524088 0.313954 -0.246282 0.236557 -0.566303 -0.800844 -0.220462 -0.373595 0.285021 -0.216092 -0.638111 0.588287 1.022012 -0.481154 -0.182242 -0.136241 -0.388581 0.235691 -0.567123 0.134278 -0.431505 0.014442 -0.093122 -0.054241 -0.448395 0.127680 0.019718 0.119125 0.237150 -0.375844 -0.099308 -0.464405 -0.517205 -0.237259 0.182824 -0.007624 -0.085131 -0.829114 0.510283 0.000187 -0.495313 0.341622 0.271349 0.699540 -0.441624 0.304778 -0.029384 -0.073886 0.123885 0.274314 0.807930 0.461649 0.000774 0.075827 0.204713 -0.163456 -0.198101 0.589615 0.140075 0.375938 0.197699 0.083321 0.433299 0.437925 0.239528 -0.650711 -0.063193 0.419559 0.396944 -0.163369 -0.032510 0.113850 0.194537 0.135492 0.128664 -0.246220 0.804430 -0.120078 -0.259005 0.102847 0.112384 0.291521 -0.448718 -0.319487 -0.237145 0.091048 -0.072671 -0.144716 0.348611 0.534814 
588 0.263063 0.048341 0.093562 -0.142990 -0.068040 -0.112448 -0.557826 -0.595235 -0.206362 0.182703 0.219848 -0.572722 -0.203959 -0.430134 -0.060165 0.031619 -0.278958 0.589042 0.337007 0.402500 -0.021049 -0.344240 -0.053153 -0.536950 0.310474 -0.104120 -0.172792 -0.397713 -0.155041 0.242541 0.395858 0.124841 0.439395 -0.105213 0.539119 -0.546716 0.320091 0.211678 0.667628 0.544678 -0.596270 0.252991 -0.037226 -0.394309 -0.217787 -0.379321 0.366249 -0.081040 -0.127547 -0.096857 -0.144129 -0.382934 -0.473406 -0.312865 -0.183994 -0.202877 -0.418029 -0.029928 -0.177666 -0.244166 0.343051 0.226257 -0.383248 0.416002 0.289346 0.783245 0.173662 -0.414387 -0.145159 0.429826 -0.134007 0.001007 -0.379817 -0.080309 0.270233 -0.805271 0.296154 0.295899 -0.028342 0.596222 0.441584 0.626580 -0.644320 0.246277 0.047798 0.013101 0.559678 -0.122796 0.645615 -0.438365 -0.360827 0.364804 -0.036058 -0.006746 0.095920 0.103812 0.036376 0.290316 -0.296860 0.345372 -0.169941 0.161414 -0.085462 -0.109937 -0.170115 0.216284 0.092158 0.222324 -0.447559 -0.165027 0.354518 0.586158 -0.476860 0.223871 0.519583 0.062468 -0.152391 -0.254145 -0.355010 -0.341326 -0.014518 -0.429933 0.242647 -0.170357 0.368973 0.055019 0.780170 0.723715 
2762 0.523340 -0.283624 0.184712 0.036090 0.134850 0.046885 -0.404870 -0.658892 0.320357 -0.198444 0.128371 -0.681926 0.038049 -0.348010 -0.084373 0.177209 -0.542122 -0.275934 0.133764 0.534933 0.093892 0.093107 -0.181023 0.141619 -0.087610 -0.340253 -0.137756 0.029509 0.135819 -0.128862 0.465558 -0.454812 0.018086 0.269798 0.089442 -0.499684 -0.503234 -0.592065 0.214280 -0.546430 -0.230405 -0.346976 -0.066497 -0.655596 -0.836544 -0.070277 0.488826 -0.018247 -0.101164 -0.442791 -0.145048 0.232312 -0.125873 -0.104763 -0.309146 0.485278 0.099281 0.390692 -0.197412 -0.347083 0.161404 -0.589372 0.003351 0.130134 0.798220 -0.156734 0.144526 0.015107 -0.017146 -0.023910 0.075250 -0.520521 -0.521087 0.559169 -0.068262 -0.451249 -0.068782 -0.055683 0.695732 0.019693 -0.208119 -0.444761 -0.459422 -0.172096 0.451693 -0.148190 -0.038889 0.374466 0.934960 1.072883 -0.400964 0.104388 -0.575201 -0.378794 0.072585 -0.492949 0.205164 0.038163 -0.351991 -0.484849 0.491874 -0.390206 0.027173 0.213812 0.408992 0.584682 -0.482293 0.148533 0.446868 -0.061450 0.716659 0.337773 0.067665 0.252542 0.155110 0.178692 -0.008597 -0.700340 0.269743 0.466499 -0.063751 0.058280 0.338366 -0.177865 0.684685 0.050050 0.125285 -0.184033 
541 -0.111885 0.090508 0.107966 0.465129 0.042843 0.027559 -0.483460 -0.745548 -0.485314 -0.010897 0.158070 -0.066678 -0.381683 0.025372 0.456394 -0.461947 0.267145 0.321354 0.439877 0.698317 -0.547636 0.025470 0.128011 0.029706 0.445789 0.248783 0.232195 -0.379215 0.077906 0.033677 -0.141103 -0.150367 0.242245 0.012173 0.324766 -0.255649 0.156715 0.191251 0.303728 -0.261747 0.051490 -0.198756 -0.174875 -0.356255 -0.442387 -0.658879 -0.119625 -0.126845 0.102212 0.150857 -0.010713 0.118072 0.047401 -0.511468 0.123237 0.281684 -0.386566 0.216723 0.091415 -0.543405 0.518187 0.091398 0.064618 0.534584 0.616154 0.421149 0.152310 -0.315064 -0.440743 -0.196116 -0.383052 0.465343 -0.369686 -0.100381 0.042936 -0.509699 0.078545 0.460959 0.200758 0.310847 0.112702 0.319293 -0.557752 0.542419 -0.292025 0.337766 0.463452 -0.434141 0.868694 -0.484180 -0.174180 0.353278 0.774195 -0.181410 0.371573 0.154559 0.317009 0.528451 -0.301363 0.254309 0.456339 0.373292 0.009399 -0.331326 0.394393 0.280699 0.287001 -0.006255 -0.606713 -0.149051 0.277896 0.444171 -0.162506 -0.040011 0.618618 0.389566 -0.096712 0.187623 -0.199935 -0.030975 -0.102726 -0.391074 0.301208 -0.283372 0.276435 0.013924 0.460628 0.828212 
1240 -0.144511 -0.128476 0.227769 -0.224226 -0.066802 -0.031020 0.841961 -1.059260 -0.333019 0.222349 -0.380569 -0.677572 -0.402950 -0.164657 0.525744 -0.184015 -0.377703 0.354350 0.630942 0.314056 0.105782 0.527162 -0.431910 0.271932 0.370676 -0.422730 -0.060773 0.067458 0.152831 0.237114 0.141567 -0.098938 0.467694 -0.086967 -0.176619 -0.753323 -0.574762 -0.252374 -0.497288 0.082740 0.039730 0.303302 0.039138 -0.081951 -0.044174 -0.071444 -0.077536 0.057044 0.198827 -0.015895 0.358709 0.283277 -0.085283 0.284251 0.128333 0.176019 0.023567 -0.402301 -0.053967 0.049366 -0.302894 0.262345 -0.143799 0.916812 0.065727 0.895221 -0.249520 -0.301754 0.334716 0.407997 0.109813 -0.322899 0.172848 0.926232 -0.173596 0.245972 0.538619 -0.034442 -0.021652 0.623453 0.037887 0.222331 -0.511836 0.102545 -0.287054 -0.492305 -0.061275 0.322775 0.838023 0.219603 0.472536 -0.318134 -0.039418 0.019021 0.385245 0.245111 0.349553 -0.182681 -0.312026 -0.030009 0.373224 0.354530 -0.296528 -0.183804 0.124151 0.016688 -0.069547 -0.241462 0.019481 0.079436 0.112228 0.328114 -0.224570 -0.120699 0.493080 -0.301792 -0.193652 -0.303830 -0.775061 0.200414 0.332529 0.109649 0.028133 -0.155515 0.044605 -0.241485 0.920522 -0.206287 
1136 0.226901 0.062344 0.493444 -0.323640 -0.561902 0.307670 0.151213 -1.529822 -0.403821 -0.381022 0.267046 -0.833519 0.379901 -0.042156 -0.146340 -0.116658 0.305446 -0.155896 0.417547 0.166474 0.177128 -0.183421 -0.138418 -0.127128 -0.195131 -0.408331 -0.171799 -0.223073 -0.273112 0.609301 -0.280394 -0.093841 0.437852 -0.160329 0.081511 -0.703383 0.256408 0.376162 -0.556261 -0.457777 -0.109698 -0.177056 0.152047 -0.160983 -0.354032 -0.110521 -0.094366 -0.202964 0.109519 -0.793641 -0.089785 -0.283413 0.102491 0.051332 -0.421804 0.269720 0.105085 0.035311 0.075280 -0.214296 0.255643 0.259710 0.466258 -0.079979 -0.019344 0.630844 0.544484 -0.281622 -0.154853 -0.181912 -0.540431 0.563861 -0.612955 0.033228 -0.033398 -0.108375 0.743405 0.167685 0.606608 0.398201 -0.039609 0.325463 -0.184315 0.281416 -0.006993 0.134467 0.194512 -0.126652 0.706678 0.089247 0.225852 -0.124979 0.118174 0.222385 0.235355 0.238943 0.286212 -0.292664 0.186821 0.335216 -0.190968 -0.169078 0.030886 0.300074 0.206553 -0.095202 0.001931 0.034986 0.263783 -0.169717 0.188672 0.034861 0.328798 0.069435 0.672101 -0.423850 0.247381 -0.768834 -0.390633 -0.008471 0.019273 0.134985 -0.055363 -0.258853 -0.366224 0.157406 -0.128033 0.270676 
1214 -0.236156 0.005185 0.446448 0.140532 0.184974 -0.200968 0.614075 -1.139970 -0.661232 -0.151479 0.072357 -0.636150 -0.252768 0.031867 0.453418 0.209946 0.461056 0.008094 0.662085 0.470598 -0.040307 0.377967 -0.264250 0.016823 0.194622 -0.567779 0.286803 -0.176639 0.304018 -0.223659 -0.293805 -0.030045 0.497457 0.248012 0.276208 -0.237148 -0.267723 -0.286945 -0.415867 -0.010477 -0.363057 0.503842 0.362300 0.120735 -0.166663 -0.132353 0.192304 -0.032460 0.077270 0.357273 0.441458 0.417513 -0.275425 0.260141 -0.411944 0.231465 0.582806 -0.248003 0.029466 0.204375 0.004375 -0.068946 -0.240652 0.217610 -0.024011 0.794154 0.486057 -0.509458 0.513709 -0.424543 -0.099200 -0.032889 0.928385 0.669476 -0.215425 -0.080493 0.441003 0.074411 0.445646 0.171984 0.378183 0.261872 -0.403481 0.351139 0.013323 0.018281 0.236187 0.000982 0.638236 -0.000716 0.341376 0.375803 -0.344548 0.248796 0.592720 0.498088 -0.161411 0.052662 0.068431 0.421546 0.714436 0.196403 -0.127007 0.234780 0.272794 0.381433 0.303784 -0.361040 0.364934 0.327594 -0.107300 -0.132206 0.428041 -0.060012 0.208699 -0.244640 -0.218674 -0.178266 -0.772218 0.366851 0.395762 0.219010 0.154222 -0.507167 -0.156308 -0.346638 0.906766 0.103072 
1270 -0.124529 0.177255 -0.215582 0.081364 -0.109233 -0.075582 0.344412 -0.311739 0.011784 0.007808 -0.398219 -0.383529 -0.125569 0.505812 0.199905 0.092647 -0.314041 0.310061 0.514638 0.262954 0.055406 -0.215096 -0.489795 -0.309712 0.409246 -0.670348 -0.093269 -0.069866 -0.098858 0.210368 -0.144501 -0.025294 -0.045909 0.101406 -0.168486 -0.409915 -0.363761 0.134628 -0.391885 0.419236 0.135885 -0.216609 -0.237062 -0.575580 -0.562228 -0.122503 0.261588 -0.194278 0.081096 0.497700 -0.128354 0.284942 -0.170262 0.671001 -0.212580 0.502748 -0.625270 0.833039 -0.108837 -0.124391 -0.076154 0.249036 -0.377393 0.362860 -0.166948 0.652502 0.413437 -0.347630 0.549336 -0.044432 -0.064123 -0.075547 -0.057415 0.384763 -0.664947 0.051767 0.490040 -0.127928 0.047310 -0.496502 0.425141 0.506944 -0.711490 0.305482 0.662645 -0.458521 0.448097 -0.409557 0.842811 0.194910 -0.114216 -0.793203 0.120467 -0.015839 0.182261 0.220137 0.485428 0.232095 0.175187 -0.441024 0.314341 0.125749 0.273396 -0.079956 0.332936 0.377918 0.086156 -0.402580 -0.022900 -0.068938 0.075389 0.092543 0.149931 -0.009722 0.373852 -0.239988 0.169662 -0.539090 -0.160390 0.243404 0.319468 0.184006 -0.402748 0.000575 -0.237145 -0.904765 0.534871 0.302706 
1193 0.235706 0.073703 -0.081432 -0.255394 0.139706 0.142135 0.367107 -1.120719 -0.540100 -0.221000 0.036166 -0.326353 0.008188 0.012139 0.258079 0.274605 0.071348 0.025185 0.860666 0.308402 0.002259 -0.276866 -0.583307 -0.260557 -0.221754 -0.176300 0.026237 0.364121 0.119183 0.224870 -0.761407 0.591093 1.008940 -0.047036 0.159000 -0.511165 0.050065 0.106771 -0.139207 0.199560 -0.027597 -0.318508 0.215387 0.159102 -0.375304 0.048361 -0.041377 -0.610902 0.126893 -0.329826 0.071156 -0.067371 -0.343879 -0.133084 -0.670847 0.536920 -0.346150 -0.029713 0.448134 0.365979 -0.178841 -0.547462 0.225443 0.435627 0.501056 0.374003 0.025905 -0.470206 0.352496 0.460586 -0.598177 0.328309 -0.335643 0.242630 -0.098968 -0.023555 0.644470 -0.161849 -0.095770 0.944205 -0.010991 0.012270 -0.366547 -0.051207 0.112959 0.292023 0.288588 -0.037096 0.721965 -0.093970 0.534172 -0.141688 -0.497102 -0.380840 0.190592 0.379593 0.118237 -0.175726 0.581833 -0.063177 0.135084 0.032982 0.210503 0.150023 0.344938 0.462271 -0.275014 -0.273397 0.020055 -0.721314 0.087997 -0.013903 0.100135 0.079358 0.514827 -0.717905 0.220728 0.126259 -0.370235 0.195262 0.336016 0.281403 0.044905 -0.110341 0.046917 0.335596 0.308522 0.386971 
380 -0.389587 -0.010059 0.343815 -0.426977 0.233817 -0.080106 0.071178 -0.568520 0.158333 0.294172 0.008129 -0.400761 0.372233 0.301463 0.181534 0.491995 0.166298 0.110527 0.132353 0.497055 -0.078499 -0.084306 -0.339237 -0.283532 0.252431 -0.143721 0.165359 -0.428628 -0.263379 0.142987 0.273583 0.220640 -0.418592 -0.248213 0.063406 -0.463361 -0.019742 0.351886 1.022907 -0.038373 -0.053549 0.300447 0.118438 -0.018327 0.194268 -0.241566 0.212217 0.250293 0.333857 0.545146 -0.060732 0.041682 0.254159 -0.535171 0.248094 -0.054492 -0.023317 -0.411031 -0.032177 0.147892 0.348243 -0.238280 0.294035 -0.082109 0.459339 0.384499 -0.148350 -0.382395 -0.352538 0.249148 0.071949 0.094498 -0.114851 -0.100002 -0.207356 -0.566788 0.337262 -0.052416 0.050907 0.128366 0.342414 0.576263 -1.239188 0.292746 -0.093158 0.288110 -0.009651 0.207113 1.213021 -0.655329 0.121771 0.271958 -0.321538 -0.236902 0.234669 -0.159027 0.381406 0.618423 0.088752 -0.148232 0.284122 0.529969 -0.321535 -0.173778 -0.059773 0.614175 0.360759 0.566302 0.069788 -0.468920 0.217935 0.576843 -0.285472 0.421944 0.682349 0.377942 0.617253 -0.265172 -0.208748 -0.138255 -0.533325 0.157655 -0.096664 0.373949 0.213534 -0.198129 0.208094 0.178862 
1036 -0.169812 0.688833 0.065213 -0.376731 0.209394 0.116597 -0.055849 -0.813322 -0.599916 -0.081525 -0.155999 -0.247196 0.324316 -0.196387 0.173708 0.000588 -0.064456 0.546157 0.316400 0.424293 0.452572 -0.248236 -0.083431 -0.218679 0.404703 -0.026130 0.141449 -0.378460 0.069178 -0.174941 0.052910 0.734479 0.528650 -0.613305 -0.284059 -0.439531 0.649074 -0.159838 -0.236030 -0.243172 0.628860 -0.326334 0.007787 -0.954486 -0.429502 -0.167633 0.083567 -0.605497 -0.337063 -0.114022 0.087139 0.269908 0.018447 -0.138855 -0.549934 0.370333 0.514215 0.299510 -0.114199 0.091415 0.557505 -0.201933 0.307290 -0.175019 0.118388 0.105008 0.504061 -0.092072 -0.150033 -0.162578 -0.222891 0.042405 -0.135608 -0.089271 -0.123699 -0.149924 0.420802 0.821768 -0.002899 0.400453 0.452799 0.451238 -0.544261 -0.011134 -0.409553 -0.333026 0.226490 0.092459 1.038984 0.083781 -0.160063 0.134812 0.186375 -0.039826 -0.024961 0.380654 0.533632 0.424782 0.164419 0.231671 0.023496 0.216898 0.374909 -0.676621 -0.025538 0.209802 -0.064199 -0.471283 0.035446 0.196965 0.382875 -0.001209 -0.276216 0.283591 0.433919 -0.134929 -0.484618 -0.267348 -0.145867 0.314304 -0.183090 -0.297851 -0.326445 -0.406337 -0.159193 0.009005 0.602137 0.394174 
1617 -0.202962 -0.061943 0.197460 0.154087 -0.413855 -0.217647 0.646998 -0.798591 -0.384673 -0.134295 0.118852 -0.297366 -0.327821 0.873748 0.256301 0.086872 -0.209439 0.135044 1.106552 -0.129321 0.005973 0.518910 -0.495601 -0.484662 0.426557 -0.511538 0.297065 0.149266 -0.029685 0.205313 0.660543 0.093994 0.368916 0.172355 -0.243588 -0.623424 0.394041 -0.321590 -0.503841 -0.173514 -0.329223 -0.070292 -0.185575 0.316670 -0.268402 -0.009613 -0.083162 0.107458 0.576433 0.068634 -0.772647 0.349884 0.472237 -0.210645 -0.356409 0.487216 -0.568667 0.560502 0.452471 0.212169 0.012091 -0.470452 -0.067036 0.401069 -0.198059 0.164226 -0.278684 -0.641280 -0.009430 0.170122 -0.306120 -0.063706 -0.210473 -0.159147 -0.124579 0.107176 0.332290 -0.165485 0.255807 0.286675 -0.076049 0.170275 -0.317425 0.103973 0.084321 0.261552 0.199648 0.614331 0.711371 -0.103076 -0.332302 -0.525727 0.148365 0.063097 -0.434148 -0.022791 -0.295525 -0.186777 -0.466639 0.161592 0.554140 -0.132551 0.532815 -0.422769 0.296870 0.300925 -0.520997 -0.493223 -0.414873 0.678228 0.658296 -0.607802 0.444866 0.246109 0.149778 0.171923 -0.321822 0.049410 0.356695 0.346464 0.158669 0.399186 0.347375 -0.213883 -0.315713 -0.411171 0.292425 -0.358642 
1291 0.224154 -0.503822 -0.464634 0.159933 -0.063782 -0.047033 0.569506 -0.959890 0.128642 0.149220 0.332397 -0.905846 -0.028430 0.402513 0.623125 -0.668552 -0.173284 0.389640 0.456994 -0.080998 -0.187788 0.402031 -0.593486 -0.272727 -0.076511 -0.588694 -0.086633 0.010271 0.424435 -0.454739 -0.007723 0.097840 0.595029 0.466130 -0.428348 -0.777194 -0.348991 0.532323 -0.437366 0.176834 0.258513 -0.635399 -0.003229 -0.524294 -0.320513 -0.167724 0.555958 -0.051376 0.362999 0.446809 0.187440 0.383492 -0.409116 0.351111 -0.474338 -0.077533 -0.373109 -0.233574 -0.270121 0.260467 -0.393285 -0.146333 0.113184 0.387315 -0.173980 0.434749 0.170330 -0.116690 0.441828 0.158305 -0.099412 -0.236684 0.077282 -0.172892 0.060124 -0.353348 0.213409 0.053205 0.139673 -0.372123 0.479409 0.229541 -0.299356 0.410818 0.537140 -0.417168 0.379273 -0.133669 0.857670 -0.215853 -0.012170 -0.233696 -0.674293 -0.137640 -0.030960 0.417280 0.069858 -0.337249 -0.214378 -0.282362 0.685048 -0.359259 -0.037530 -0.125402 0.236479 0.243623 -0.056115 -0.457200 -0.061552 0.406386 -0.439301 0.064609 -0.068820 0.045435 0.414684 -0.203836 -0.094945 -0.432174 0.250022 -0.299567 0.440839 0.491942 0.299445 -0.035217 0.313793 -0.236661 0.466745 0.371409 
733 -0.051468 -0.064304 -0.185811 -0.001559 0.076088 -0.323283 -0.894569 -1.402980 -0.351588 -0.009839 -0.263558 -0.363016 0.101786 0.030001 -0.211148 0.144253 0.364396 0.122582 0.801151 0.288063 0.380663 -0.411469 -0.062798 -0.386108 0.150479 0.249716 0.058302 -0.254930 0.173000 0.050498 -0.053581 0.026651 0.417752 -0.296497 0.376539 -0.446304 -0.068247 0.162163 0.450788 0.179617 -0.396610 -0.042639 -0.336910 -0.798908 -0.579721 -0.195281 0.575144 -0.104089 -0.593408 0.227043 -0.113428 -0.167641 0.474986 0.004455 0.031756 0.076087 -0.295135 0.191521 -0.286801 0.156648 0.147774 -0.362121 -0.732713 0.019578 0.115549 0.058608 0.726897 -0.556073 -0.450489 0.148470 0.130755 0.080681 0.073146 0.392069 0.063758 -0.072632 0.070359 0.022460 0.237054 0.556830 0.333453 0.463505 -0.076946 -0.010649 -0.327114 0.113854 0.227842 -0.269419 0.903770 -0.249013 -0.119663 -0.217760 0.072617 -0.090656 0.093139 0.592795 -0.374788 0.613491 0.325544 0.073033 0.122145 -0.033656 0.206826 -0.271089 0.395949 -0.225511 0.492367 -0.384348 0.050335 -0.078643 0.126017 0.135621 -0.227817 0.127331 0.742681 0.103266 -0.147760 0.375848 -0.033250 -0.039621 -0.837576 -0.129947 -0.060688 -0.322553 -0.096600 -0.363399 0.312392 0.413962 
2959 0.640581 -0.699388 0.249335 -0.053484 -0.545966 0.075762 -0.671657 -0.246615 -0.389540 0.183838 0.359344 -1.212165 0.432177 -0.332938 0.245665 0.066134 -0.342579 -0.208429 -0.439912 0.166466 -0.173172 0.920788 -0.285594 -0.419718 0.143821 0.032812 0.498339 0.279710 -0.475219 0.483562 0.021333 -0.307356 -0.925686 -0.058154 0.255045 -0.714098 -0.288011 -0.565675 0.387328 -0.595990 0.134636 0.059062 0.122840 0.067093 -0.705035 0.126289 0.268925 -0.348874 0.604996 -0.092769 -0.226046 0.288630 -0.118732 0.148498 -0.104610 0.034298 0.001743 0.411503 0.405270 -0.776927 -0.060537 -0.087687 0.059094 0.460546 0.462801 -0.008008 0.066976 -0.430327 0.122496 -0.543444 0.054875 -0.004697 0.121407 0.497606 -0.324581 -0.316675 0.265665 0.565824 0.197117 0.076952 -0.132915 0.277850 -0.311058 -0.223049 0.350231 0.027415 0.377314 0.053262 0.894788 0.389309 -0.595155 -0.301313 -0.042177 -0.195938 -0.206313 0.288775 -0.592186 -0.198694 0.009988 -0.191940 0.173764 0.063067 0.335223 0.050059 0.381449 0.181681 -0.071139 -0.545352 -0.209374 -0.385871 0.512228 -0.161030 -0.079638 0.205890 -0.395537 -0.314847 -0.410074 -0.577804 0.173079 0.086492 -0.013547 -0.112804 0.041621 -0.045670 0.508291 -0.833543 0.064726 -0.244753 
1197 -0.224615 -0.055139 0.316649 -0.243169 -0.818711 -0.121367 0.380084 -1.355047 -0.662001 -0.331293 -0.355283 -0.087427 -0.525044 -0.529370 0.221347 0.334860 0.367711 0.365416 0.377081 0.238964 0.265366 -0.362179 0.231950 0.031814 -0.114639 -0.104205 -0.474917 -0.176173 -0.075709 0.205027 -0.525555 0.009143 0.678557 -0.330120 -0.265304 -0.652768 -0.132872 -0.133381 0.129442 -0.430184 0.240876 -0.226783 -0.105919 -0.176819 -0.190120 0.471450 -0.291936 -0.042035 0.472486 0.234463 0.052770 0.513516 -0.084125 0.088645 -0.498966 0.559960 -0.187117 0.025076 0.498426 -0.284447 0.055287 -0.241482 -0.074618 0.414053 -0.266357 0.537121 0.675388 -0.432057 0.246752 0.188687 -0.404596 0.524393 -0.055583 -0.011240 -0.039795 0.124860 0.574698 0.507750 0.226090 0.230254 0.133307 0.483565 -1.073564 0.452992 0.201746 -0.352146 0.933997 0.245614 0.755303 -0.321313 0.587534 -0.316698 0.049065 0.452340 0.055832 0.650967 0.011578 0.044887 0.160073 0.071910 0.256220 -0.047488 0.029596 0.018242 0.561829 0.192548 0.137145 0.107926 -0.118531 0.062943 -0.027846 -0.082149 0.525341 0.221708 0.109178 -0.365766 0.038157 -0.524341 -0.115494 -0.028645 0.076224 0.538865 -0.192683 0.226590 0.022106 0.275953 0.392543 0.267386 
364 0.001338 0.155440 -0.242355 -0.099947 0.093310 -0.336944 -0.411278 -1.037654 -0.045378 0.199727 0.340307 -0.553491 0.307577 0.006408 0.119455 0.264875 0.126272 0.004206 0.124129 0.248529 -0.212431 0.101478 -0.445544 -0.492557 0.293833 -0.035819 -0.561367 -0.267483 0.015976 0.388742 0.054458 0.362957 -0.397783 -0.670340 0.471459 -0.553426 -0.036582 -0.166879 0.587006 -0.252728 -0.544307 -0.288774 0.289718 -0.366509 0.142237 -0.478656 0.117783 0.519223 0.156969 0.561160 -0.198366 0.047523 0.046534 0.058408 0.621146 0.085097 -0.516002 -0.331432 0.022267 0.235564 0.337793 0.172285 0.468714 -0.215373 -0.144772 -0.016650 -0.074255 -0.308714 0.056371 -0.161119 -0.193589 -0.292802 -0.155683 0.197078 0.050038 -0.395631 0.618791 0.407903 -0.047951 -0.044352 0.434405 0.373326 -0.983909 0.625009 -0.141406 0.315216 0.369145 -0.111859 0.523268 -0.544819 -0.094764 0.315988 -0.313272 0.127670 0.162274 0.084289 -0.039812 0.595460 0.369341 0.259128 -0.222175 0.293011 0.217839 -0.415435 -0.026986 0.479198 0.392546 0.734332 -0.159453 -0.504834 0.424564 0.608635 -0.085037 0.181810 0.399206 0.828905 0.146638 0.226010 0.299444 -0.162682 0.120414 0.324821 0.066978 -0.010241 0.285219 -0.012715 0.621104 0.361745 
1200 -0.251740 0.523029 0.834780 0.064012 -0.233073 -0.123300 0.282741 -1.115331 -0.447046 0.155654 0.037771 -0.565973 -0.458425 -0.297770 0.152749 0.236714 0.258259 0.349576 0.556334 0.457522 0.019824 -0.049319 -0.042777 -0.164190 -0.402571 -0.251373 -0.218135 -0.237263 0.290250 -0.116961 -0.567584 0.295798 0.489340 0.131057 -0.029104 -1.105220 0.244979 -0.102167 -0.425420 0.098115 0.226269 0.501290 -0.008114 -0.287904 -0.262035 -0.095508 0.011133 -0.357995 0.127425 -0.132624 -0.074335 0.380053 -0.098969 0.202555 -0.161525 0.696722 0.089144 -0.002587 0.091029 -0.233017 0.128388 -0.052326 -0.106851 0.421986 0.293819 0.248141 0.542653 -0.390896 0.335292 0.169106 -0.566078 0.242869 0.171364 0.249210 0.074620 0.240705 0.446257 0.643296 0.184457 0.460988 0.565355 0.433606 -0.423983 0.512214 0.137235 0.512775 0.373469 0.119730 0.722178 -0.307085 -0.263179 -0.071787 0.027979 0.487911 0.033482 0.231042 -0.109721 -0.320706 0.064565 -0.095905 0.392945 0.033161 -0.519817 0.111121 0.607397 0.854687 -0.026384 -0.264658 0.195580 -0.299082 0.063781 0.303250 0.056509 0.373817 0.455710 -0.422382 -0.310855 -0.484467 0.051601 0.250992 0.110087 0.152081 0.194814 -0.212560 -0.405376 0.097238 0.568481 -0.052927 
34 0.242252 0.234114 -0.441089 0.054452 0.367723 0.226795 -0.276821 -1.143077 -0.365443 -0.088650 0.422946 -0.110461 -0.130641 0.084053 -0.024278 -0.359656 0.540604 -0.743180 1.039671 0.077082 -0.101904 0.081240 -0.202710 -0.408400 0.607102 0.030948 0.044037 0.184850 -0.115749 0.008738 0.156576 0.079169 0.243914 -0.154431 0.119648 0.076139 -0.038354 0.342641 0.077717 -0.450894 -0.277394 -0.150930 -0.505527 -0.219946 0.349527 -0.085767 -0.528222 0.019928 0.056524 0.277678 -0.471101 -0.028407 -0.143385 -0.227216 0.264433 -0.348561 -0.726915 -0.250086 0.020042 0.340210 -0.324274 0.308011 0.343107 0.296487 0.060854 0.655788 0.175578 -0.212684 0.417435 -0.450961 0.326471 -0.183250 -0.227031 -0.116697 -0.168140 -0.311135 -0.181073 0.183302 -0.198197 -0.079344 -0.017848 -0.274866 -1.489512 0.118792 -0.174636 -0.104754 0.245818 0.161454 0.993825 -0.655698 0.086915 0.502643 0.265712 0.251335 0.081232 -0.274579 -0.069510 -0.021617 0.309720 0.421785 0.302448 0.225907 -0.321541 -0.363161 -0.341800 -0.089232 0.011702 0.244338 0.441827 -0.373910 -0.080365 0.451970 -0.088000 0.327313 -0.562380 0.104582 -0.086451 -0.215002 -0.254778 0.308094 -0.107317 -0.138668 -0.025249 0.494496 0.385999 0.292557 0.265932 0.338125 
1097 -0.262428 0.003752 0.203553 -0.485692 -0.005831 0.496031 0.111144 -0.959450 -0.681337 -0.087211 0.132937 0.053174 0.274942 -0.495743 1.081415 0.723363 -0.103849 0.249633 0.634156 0.073810 0.340779 -0.061051 -0.078461 -0.402639 -0.150812 -0.231075 -0.332369 -0.154542 -0.077560 0.436386 -0.631348 -0.275172 0.659433 -0.146271 0.288233 -0.332502 0.093330 0.073046 -0.560341 0.025666 -0.496132 0.027254 0.010562 -0.705026 -0.726309 -0.093107 0.328424 -0.074885 0.173666 0.261556 -0.442707 0.003978 0.275156 0.041716 -0.548518 0.577015 -0.117643 0.179748 0.219324 0.628473 0.145760 -0.169534 0.557978 0.186333 0.145122 -0.132293 0.114181 0.071748 0.279241 0.379339 0.249308 0.285801 -0.359921 -0.524122 -0.207983 0.397287 0.395417 0.234057 -0.345970 0.661096 0.212239 0.156883 -0.720212 0.003230 0.095078 -0.241603 0.039089 0.259089 1.178738 -0.004112 0.131675 -0.543142 0.480215 0.198414 0.223589 0.243231 -0.266424 0.022061 0.133420 0.132295 -0.108797 0.082846 0.235488 -0.210348 -0.044086 0.070929 0.115531 -0.312920 0.444466 -0.228286 0.188258 0.393780 0.675164 -0.239394 0.435815 -0.501227 -0.236400 -0.551568 -0.302312 -0.060969 -0.489989 -0.250564 -0.200571 -0.336040 -0.320411 0.301192 0.633344 0.382188 
377 -0.361276 0.204386 -0.188622 -0.358391 -0.121371 -0.275934 -0.053613 -0.777031 -0.109599 -0.357520 0.031046 -0.221022 0.409546 0.122441 -0.273105 0.072215 0.186709 -0.089077 -0.184899 0.097855 -0.153527 -0.239799 -0.425421 -0.069437 0.470807 -0.221750 0.182343 -0.665104 0.022465 0.363920 0.218911 -0.177217 -0.506646 -0.329133 0.041312 -0.387027 -0.014030 -0.280139 0.406467 0.025417 -0.083931 0.149018 0.197988 0.120892 -0.352976 -0.503658 0.282014 0.273831 0.024025 0.375138 0.292931 0.113281 -0.158688 -0.151323 0.402815 0.120123 -0.665434 0.167769 0.108723 0.175233 0.280240 -0.350654 -0.027454 0.250510 -0.176385 0.706591 0.131252 -0.417903 0.069978 0.072964 -0.045706 0.041471 -0.028952 0.326811 -0.570488 -0.432794 0.387891 -0.033692 0.031882 0.418009 0.298242 0.037853 -1.284663 0.361861 0.115413 0.149296 0.822171 0.083861 0.835997 -0.722175 0.428780 0.195046 -0.174771 -0.044215 0.030894 0.515633 0.169504 0.034486 0.503482 -0.140224 -0.197845 0.351728 -0.428675 -0.571033 0.013152 -0.110238 0.272494 0.873637 0.185867 -0.095740 0.696800 0.566341 -0.162092 0.010874 0.396519 0.408901 0.248908 -0.330829 -0.546055 0.092045 0.114610 -0.004854 -0.041063 0.151476 0.681759 -0.015818 0.381212 -0.037098 
1213 0.209933 0.022058 0.371567 -0.012304 -0.329992 -0.045429 0.242999 -1.104685 -0.224917 -0.441886 -0.402779 -0.555307 0.142171 0.065424 0.374408 0.017758 0.274223 0.653441 1.325239 0.204107 0.234220 -0.335525 -0.327106 -0.188126 0.078031 -0.107231 0.104761 -0.410617 0.278654 -0.082938 -0.411841 -0.025259 0.629379 0.138103 0.242801 -0.478249 0.180325 -0.148077 0.372996 0.016545 0.088286 -0.256125 0.085582 0.297178 -0.612897 0.513899 -0.132276 -0.106683 0.224966 -0.419978 0.166348 -0.283984 -0.446235 -0.014831 -0.087454 0.794298 0.265865 -0.510344 -0.345749 0.191246 -0.111293 -0.231067 -0.649859 0.151304 0.042088 0.963121 -0.244340 -0.517532 0.108728 -0.174613 0.076145 0.575987 0.319987 0.428025 0.281110 -0.035422 0.940612 -0.095286 0.013409 0.597968 0.519619 -0.136625 -0.994661 0.206771 -0.055310 -0.310803 -0.237445 -0.043592 0.694988 -0.165607 -0.310405 -0.230762 0.157174 0.169979 -0.103344 0.474214 0.218066 -0.202721 -0.194328 -0.456195 0.031473 -0.072684 -0.200218 0.375962 -0.127972 0.542978 -0.916690 -0.311200 -0.387693 0.418161 -0.418273 0.192982 0.289317 0.232885 0.870666 -0.327897 -0.190020 -0.294990 0.243643 -0.046964 -0.227422 0.336132 -0.251079 0.331767 -0.102567 0.180926 0.553896 -0.671981 
111 0.527515 0.544937 -0.030239 0.146576 0.141600 0.971935 0.037947 -0.647703 -0.432144 0.431255 -0.065470 -0.506263 -0.036841 -0.033789 0.193222 -0.041627 0.080955 -0.166283 0.043822 -0.244426 -0.108725 0.207871 -0.101593 0.205680 0.230403 0.210407 0.058298 -0.916661 -0.289267 0.121420 0.052903 0.248295 0.429766 -0.168842 0.083394 0.267028 0.451471 -0.001206 0.437547 -0.421896 0.052993 0.212135 -0.226241 -0.476402 -0.113895 -0.093918 -0.709373 -0.403462 0.122298 0.171296 -0.453023 0.058841 -0.131650 -0.009856 0.097422 0.180588 -0.168681 -0.388437 0.165875 -0.073059 -0.336540 -0.296006 -0.179738 0.544431 0.699976 0.690364 0.616371 -0.021056 0.358205 0.223694 -0.172184 -0.376628 -0.049711 -0.481720 -0.172814 -0.153099 0.150011 -0.365030 -0.178911 -0.017003 0.019574 -0.156098 -0.868201 0.465069 0.247895 0.180133 0.047698 0.006009 0.715538 -0.365799 0.482246 0.619305 0.382224 -0.041037 0.340912 0.290859 -0.065435 0.185117 0.230306 -0.148786 0.010195 0.462770 0.625011 -0.254807 -0.233469 -0.117580 0.271218 0.051533 0.054525 0.109401 -0.123808 0.165789 0.135417 0.142985 -0.042635 0.701872 0.427455 0.086181 -0.284329 0.228901 -0.716459 -0.250206 0.297769 0.141522 -0.092649 0.219174 0.517059 -0.141677 
1089 -0.224573 -0.179752 -0.135648 -0.432129 -0.306837 0.335028 -0.397508 -0.957019 -0.009976 -0.441831 0.152283 -0.782320 0.036161 -0.008649 0.240194 -0.313720 0.181745 0.176051 0.424429 0.566757 -0.297545 -0.456617 0.189876 0.412101 -0.034834 -0.232601 -0.123657 -0.284046 0.022118 0.068337 -0.499195 0.762595 0.857906 -0.403127 -0.073407 -0.839597 0.629304 -0.345559 -0.509179 -0.506392 -0.159074 -0.020480 -0.414281 -0.374275 -0.457282 -0.232264 0.145844 -0.410569 -0.129368 -0.691150 -0.280423 -0.282532 -0.265806 -0.091214 -0.592172 -0.008997 -0.114938 0.217669 0.529235 -0.320159 0.262443 0.076228 0.042400 -0.231882 0.587659 0.168546 0.122901 -0.491060 0.087058 0.021472 0.099122 0.455161 0.023925 -0.292894 0.220064 0.131174 0.720798 0.654110 0.264590 0.517794 0.192493 0.096173 -0.640777 -0.109150 -0.102384 0.056303 0.113874 0.043455 0.661665 -0.320005 0.407548 -0.070131 -0.086192 0.349027 0.018962 0.395035 -0.056498 -0.307073 0.602828 0.154327 0.238771 0.545909 -0.188238 -0.140791 0.353545 0.271220 0.300263 -0.361757 0.156290 -0.518124 0.024961 -0.026458 0.361940 -0.363861 0.256931 0.106840 -0.545457 -0.355281 -0.435146 -0.418112 -0.171178 -0.065620 -0.156893 -0.202685 0.306564 -0.203132 0.282939 0.025786 
1221 0.207907 0.036537 0.380853 -0.243630 -0.577871 -0.066408 0.191548 -1.105024 -0.312359 0.099161 -0.199253 -0.786265 -0.121851 0.000117 0.415315 -0.010953 0.362402 0.037702 0.730210 0.352926 -0.298170 0.082438 -0.470324 -0.448155 0.505749 -0.186828 -0.048054 -0.325605 -0.117277 -0.266132 -0.450471 0.360611 0.369372 -0.328405 0.597943 -0.523389 -0.113024 0.003698 -0.523397 0.532958 -0.215204 -0.089326 0.406270 -0.022357 -0.195826 0.400798 -0.162037 0.357520 0.483894 0.078962 0.523440 0.341207 -0.043573 0.126329 -0.290955 0.746591 0.262663 0.087598 -0.108483 -0.098419 -0.207912 0.003338 -0.105595 0.518958 -0.310814 0.408451 -0.041252 -0.303458 -0.292923 0.534754 -0.289184 -0.115063 -0.109434 0.350960 -0.221681 0.076019 0.093478 -0.126351 0.185187 0.637331 0.292496 -0.176681 -1.173980 0.018824 0.106483 0.015285 0.192949 -0.366257 0.744112 -0.029832 -0.015889 -0.384893 0.084224 0.188759 -0.909929 0.321331 0.241680 0.096037 0.367911 -0.287527 0.794998 0.295389 -0.196701 -0.259613 0.173038 0.567121 -0.314945 -0.322631 0.228105 0.503913 -0.182567 0.151403 -0.178335 0.017314 0.418530 -0.108341 -0.464064 0.126112 -0.398973 0.257716 -0.134868 0.250120 0.202246 -0.407331 0.015553 0.276781 0.618208 -0.586160 
595 0.549988 0.245909 0.093367 0.216162 0.441223 -0.242668 -0.494333 -0.722266 -0.201654 0.367408 0.267811 -0.800264 -0.273243 -0.256499 0.623241 0.523241 0.159350 0.530628 0.665164 -0.096844 0.576121 -0.330347 0.060063 0.364743 -0.073616 0.045220 0.220257 -0.723116 0.264947 0.082999 0.356689 0.601477 0.104410 -0.415066 0.045300 -0.515041 0.128647 0.329944 0.599185 0.225702 -0.330975 0.775980 0.142390 -0.646736 0.176307 -0.220025 0.465589 0.248350 -0.143701 0.092705 -0.097109 -0.328299 0.163068 -0.414544 0.022694 -0.228277 -0.428308 0.309475 -0.239778 -0.017404 0.561950 0.193007 0.018671 0.427398 -0.247991 0.296491 0.061816 -0.581546 -0.763292 -0.298639 -0.223439 0.062159 0.105503 -0.454048 0.285478 -0.660249 0.129001 0.556825 0.132714 0.291016 0.330936 0.671353 -1.031894 -0.024247 -0.121748 0.228848 0.374020 0.018004 0.092321 -0.131446 0.291175 0.635322 -0.025837 -0.464128 0.356133 0.165061 -0.112056 0.282684 -0.111945 0.038873 -0.246975 0.526672 0.463704 -0.529910 0.455705 -0.079901 0.218837 0.448399 -0.208294 -0.343095 0.692190 0.178525 -0.221966 0.050399 1.218319 -0.128157 -0.203069 -0.026503 0.136003 -0.020436 0.764871 -0.320200 0.059959 -0.821928 -0.091418 -0.028017 0.565915 0.143269 
1265 -0.143257 -0.024204 -0.389105 -0.136311 -0.620794 -0.329594 0.807543 -0.698568 -0.393823 -0.594013 0.058763 -1.059935 -0.471310 0.064116 0.191818 0.596735 -0.074971 0.386456 0.435111 -0.009329 0.225942 0.412027 -0.438373 -0.093518 0.601870 -0.159965 -0.007610 0.112241 0.458060 0.209725 0.253950 0.258371 0.661901 -0.450343 -0.127136 -0.571124 -0.095637 0.823545 -0.369254 -0.196269 0.116884 -0.336203 -0.292058 -0.060261 -0.261878 -0.332301 0.321571 -0.044420 0.709903 0.320612 -0.137063 -0.454685 -0.565181 0.737976 -0.471893 0.093454 0.109437 -0.205928 0.039520 0.129561 -0.080428 0.228046 0.100288 0.846062 -0.658331 -0.004095 0.236437 -0.315178 0.137314 0.007224 -0.559319 0.102674 -0.118088 0.624069 -0.364821 0.221572 0.422206 0.282669 0.143222 0.204668 -0.105873 0.411860 -0.998283 0.016685 0.518233 0.064100 0.050107 0.212128 0.970697 -0.186559 -0.523154 -0.581013 0.096465 -0.373345 -0.132019 0.385232 0.522256 -0.243210 -0.145091 -0.334231 0.445754 0.225073 0.077413 0.481690 0.632939 0.183844 -0.207711 -0.069650 -0.025536 0.273696 -0.086250 0.312096 -0.143913 -0.451744 0.354003 -0.176700 -0.508817 0.347192 0.297471 0.399947 0.148254 0.122688 -0.282770 -0.476161 -0.449029 -0.380207 -0.275766 0.442880 
3578 -0.447042 0.091533 0.210555 0.406627 0.160081 -0.022805 -0.074012 -0.420448 0.040632 0.062977 -0.099802 -0.728714 0.433103 -0.075741 -0.027903 -0.489748 -0.330124 0.046322 0.018213 0.546292 0.170487 0.291434 0.148349 -0.080129 -0.428542 0.099466 -0.190271 -0.304273 0.172982 -0.683227 -0.696806 -0.371080 -0.152309 0.084111 0.445658 -0.967213 -0.580906 -0.103332 0.202912 -0.702048 0.643772 -0.394253 -0.148883 0.073557 -0.308583 0.116850 -0.117902 0.081006 0.421300 -0.179736 -0.472510 -0.103906 -0.410073 0.698618 0.245455 -0.075940 -0.314431 0.223541 0.545259 -0.173067 -0.135737 -0.160270 0.038500 -0.409116 0.221484 0.325718 -0.195232 0.163388 -0.292045 0.025128 -0.563570 -0.045710 0.164142 -0.282361 -0.296691 0.237983 0.297543 0.538050 -0.232680 0.157164 0.084139 0.149260 -1.491911 0.099409 -0.240564 -0.108113 0.466752 0.208895 0.757785 0.440873 -0.011774 0.048601 -0.498694 0.152790 -0.312451 -0.106457 0.041050 -0.177630 -0.097616 0.426730 0.180424 0.246897 -0.102436 0.412451 -0.210217 -0.545978 -0.229921 -0.331300 0.134205 -0.572239 0.076947 -0.278014 -0.569163 0.484011 -0.097584 -1.014088 -0.756355 -0.232213 0.622058 0.345642 -0.353095 -0.027609 0.328300 -0.326648 0.902966 -0.315180 -0.111872 -0.493107 
1704 0.274891 -0.488157 -0.211579 0.329018 -0.394245 -0.064963 0.196103 -0.938135 -0.916031 0.285500 0.116200 -0.313330 -0.332867 0.579019 -0.054869 -0.766558 -0.314072 0.145945 0.488688 0.300827 -0.372437 0.074927 -0.291883 -0.478741 0.705426 -0.665194 0.467150 -0.418314 -0.036550 0.566058 -0.102628 -0.020575 0.460882 0.334976 -0.104531 0.127413 -0.100142 0.034196 0.305492 -0.006070 -0.408798 0.111003 0.091789 0.352508 -0.138633 -0.081019 -0.106867 -0.162100 0.244133 0.298333 -0.375956 -0.439300 0.012351 -0.248555 0.041578 0.785007 -0.351859 0.389989 -0.352433 -0.238298 0.187452 0.151635 -0.397014 0.148013 -0.077208 0.476065 -0.113515 -0.154613 -0.119305 -0.050994 -0.433264 -0.151519 0.130501 -0.268341 -0.063108 0.159742 0.097120 0.553599 0.070060 -0.062335 0.039943 -0.357437 -1.142148 0.126024 0.149753 0.355515 -0.652318 0.701652 0.148922 -0.034113 0.267692 -0.713192 0.051446 -0.056510 0.071683 0.096304 0.395703 -0.383567 -0.366159 0.256114 0.333147 0.256187 0.167273 0.018519 0.009194 -0.041488 -0.284561 -0.638423 0.276741 0.050593 0.653894 0.217785 -0.001829 0.051636 0.118734 -0.497515 0.093235 -0.157982 0.414710 -0.606460 0.153508 0.708882 0.506407 0.111686 -0.666386 -0.134811 0.526804 -0.115021 
4993 0.031809 0.183514 0.249433 0.969866 0.665827 -0.216386 -0.128506 -0.795573 0.109127 0.264186 0.527301 -1.100002 0.117267 -0.402075 0.427711 -0.000127 0.117812 -0.140813 0.187757 -0.143191 0.233173 -0.329374 -0.117382 -0.544584 -0.350250 0.110040 0.413045 -0.215136 0.642208 -0.283292 0.572736 -0.061070 0.256214 0.151132 0.224472 -0.980327 -0.130856 0.026928 -0.384174 -0.171718 -0.226004 0.642320 -0.290111 0.145670 -0.729268 0.237760 0.149839 -0.170838 0.581028 -0.228519 0.294998 -0.261394 -0.137513 -0.191521 -0.132135 -0.630557 -0.257380 0.262992 0.222668 -0.292191 0.320102 -0.439778 0.251285 -0.505625 0.112056 0.755710 -0.129031 0.543628 -0.277199 -0.371901 0.196569 0.129399 -0.342969 -0.014034 -0.678852 -0.032715 0.320366 -0.653393 0.063357 0.398863 -0.248255 0.464426 -1.039822 0.415248 0.417891 -0.249164 0.391635 0.027751 0.247469 0.757577 -0.103415 0.281468 0.392853 0.515667 0.616931 -0.570156 0.281222 -0.369991 -0.560858 -0.187259 0.615608 0.279697 0.451088 0.128291 0.160286 -0.135298 0.104663 -0.140702 -0.240688 0.238523 0.291109 0.154382 -0.501917 0.528511 0.268731 -0.022958 -0.170684 0.589193 0.004946 0.504449 0.737008 0.878517 0.307452 -0.051730 0.402172 -0.153843 -0.262805 -0.157052 
349 -0.218139 0.227563 -0.250216 -0.168647 0.375835 -0.433322 -0.153288 -1.156380 -0.329361 0.672977 0.683517 0.034491 0.334864 0.243227 -0.367225 0.353660 -0.156760 -0.038256 0.152799 0.050826 -0.249436 0.010595 0.020089 -0.160305 0.371437 0.250965 0.461159 -0.371316 0.265538 -0.132894 0.062720 0.488052 -0.410056 0.096625 0.258768 -0.190775 0.022688 0.070424 0.319866 0.177851 -0.110074 0.205091 -0.140310 -0.244866 -0.205273 -0.256593 0.330858 0.815732 0.629425 0.204498 -0.315784 -0.229450 -0.164578 -0.171513 0.037309 0.327368 -0.454462 -0.104615 0.149229 0.140831 0.707631 -0.230152 0.360069 0.247212 0.224732 0.116548 0.496419 -0.425779 0.009768 0.517729 -0.486901 -0.011089 0.172620 0.313106 -0.753064 -0.242519 0.615119 0.203546 -0.078157 0.216151 0.217258 0.200935 -1.042518 0.431426 -0.197584 0.483461 -0.465164 0.061560 1.033376 -0.355573 0.206739 0.360706 0.062194 0.398155 0.009972 -0.307132 0.372530 0.327148 0.154796 -0.185635 -0.220718 0.497542 -0.418273 0.065611 -0.072965 0.264686 0.208931 0.414705 0.191295 0.042431 0.478302 0.451344 0.484717 0.349412 0.162262 0.561495 0.095996 -0.454508 -0.496051 0.594071 -0.126408 -0.034278 0.399843 -0.098458 0.384566 0.245216 0.419694 0.356540 
36 0.666540 0.447910 -0.175536 -0.023755 -0.167670 0.275706 -0.372019 -0.831039 -0.525072 -0.097353 0.267783 -0.727165 0.036996 -0.353679 0.137527 -0.479537 0.215966 0.085416 0.913029 0.196420 0.198739 0.741345 0.414212 -0.039403 -0.046789 0.071552 -0.311471 -0.058921 0.241696 0.279433 0.182902 -0.012425 0.108600 0.056000 -0.188022 0.085794 0.362842 0.070063 -0.404105 0.031278 -0.022952 -0.301340 -0.444707 0.028269 -0.030238 0.044527 -0.193107 0.113519 0.103256 0.174995 -0.532497 -0.403029 0.063143 0.096080 0.258915 0.124664 -0.482269 -0.075719 -0.051636 0.234105 -0.155899 0.070617 -0.038921 0.577589 -0.031410 -0.015991 0.909001 -0.412614 0.582992 -0.162935 -0.280432 0.044679 -0.125446 0.280656 -0.022951 -0.603285 -0.289316 -0.447646 -0.436133 0.547020 -0.064792 -0.071536 -1.549142 0.104990 0.168904 0.497840 0.056670 -0.138120 0.163756 -0.045860 0.546425 0.490627 0.254443 -0.093248 -0.147282 0.133843 -0.181215 0.358400 0.294787 0.443334 -0.039901 1.084770 -0.021568 -0.502472 -0.067388 0.346248 -0.157977 0.131729 -0.068776 -0.350106 -0.391366 0.417722 -0.063004 0.516898 0.062313 0.283065 -0.018888 0.065698 0.159759 0.056819 -0.245135 0.152010 -0.161025 0.124069 0.305916 0.169051 0.415792 0.231130 
1073 0.319996 -0.036437 -0.044626 -0.430426 -0.374275 0.228304 -0.169906 -1.094216 -0.195040 -0.099034 -0.075800 -0.645766 -0.194506 0.225961 0.604425 -0.223092 -0.016564 0.085363 0.396953 0.283195 0.054428 -0.116860 0.420082 -0.324278 0.065533 -0.365920 -0.012581 0.068899 0.008470 0.525874 -0.562468 -0.040397 0.708491 -0.069445 -0.357821 -0.741900 0.198680 0.057383 -0.213634 0.061805 0.180044 0.323172 0.297569 -0.244034 -0.933367 0.334650 -0.068164 0.141326 0.164964 0.278371 0.359169 -0.463176 0.768791 0.207601 -0.909828 0.336378 -0.034684 -0.071126 -0.356144 -0.426912 0.022064 -0.196451 0.143382 -0.687655 0.454886 -0.045479 0.063223 0.051098 0.411345 -0.158650 -0.395934 -0.607662 -0.218577 -0.064193 -0.056433 -0.357992 0.427469 0.092407 0.443007 0.337252 -0.401657 0.596599 -1.042351 0.190529 -0.483216 -0.173261 -0.097240 -0.019489 0.455357 -0.336138 0.294013 -0.180840 -0.021773 0.163486 -0.758886 0.187852 -0.237206 0.267031 0.120590 0.149727 -0.086199 0.714888 0.037966 -0.059334 0.021756 0.093731 0.178147 0.104379 -0.531081 -0.197334 0.317040 -0.284963 0.258521 0.165887 0.464227 -0.466693 -0.544944 0.107574 0.077835 0.116291 -0.679524 0.196497 -0.700405 -0.314419 -0.440318 0.146300 0.284707 0.961296 
2396 0.270249 -0.494435 0.340593 -0.309435 0.424980 -0.468805 -0.058183 -0.541008 -0.478426 -0.641896 0.409887 -0.098302 0.023887 0.713587 -0.158574 0.119037 -0.041871 -0.194307 0.134070 -0.578729 -0.322264 0.538487 -0.574332 0.565526 -0.843368 -0.664423 -0.083915 -0.262063 0.097824 0.248762 -0.445634 -0.463585 0.175830 -0.206986 -0.097748 0.179064 -0.012528 -0.293312 0.075146 -0.296797 0.066337 0.031795 -0.296120 -0.027945 -0.277555 -0.200496 0.128523 0.253617 0.618296 -0.103014 -0.072098 0.280973 0.011928 0.253486 -0.199504 0.487557 0.162683 -0.076203 -0.024924 -0.197647 0.128480 -0.417526 -0.205051 0.309844 0.306617 -0.007059 0.027739 -0.727042 0.224216 -1.047922 0.399712 -0.181570 -0.611181 0.091927 0.310859 0.294055 0.252114 -0.297610 -0.479768 0.260736 0.425505 -0.306910 -1.273105 0.031989 0.507437 -0.127487 0.665826 0.686111 0.406406 0.428090 -0.442273 -0.176635 0.219471 -0.042295 -0.281042 -0.430502 -0.675894 -0.350604 0.270733 -0.252507 0.577742 0.244546 -0.627919 0.462910 -0.171814 0.274652 -0.251681 0.062914 0.183804 -0.225614 0.178592 0.228768 -0.316657 0.360202 0.396086 0.554755 0.114274 -0.264062 0.239150 0.129209 -0.021121 0.738757 0.189398 -0.131106 -0.145242 -0.073628 0.289108 -0.226274 
1580 0.054294 -0.087145 -0.338219 -0.123285 0.260654 0.075440 -0.035616 -0.424631 0.106281 0.078031 0.404878 -0.881588 -0.279187 0.638599 0.839519 -0.035024 0.306057 0.103579 0.565673 0.237140 -0.076768 -0.070268 -0.746103 -0.324842 0.735079 0.254737 -0.302541 0.401882 0.240266 0.080735 0.453088 -0.246481 0.064552 0.774924 -0.491562 -0.031968 0.087373 0.099205 0.047320 -0.068618 -0.615983 0.014459 -0.042565 -0.015222 -0.508041 -0.246472 0.595265 0.276163 0.090594 -0.282053 -0.398689 0.548443 0.511088 0.470871 -0.044647 0.467062 -0.362232 0.602381 -0.507023 0.691327 0.187470 -0.564988 -0.169132 -0.141142 -0.233748 0.681067 0.545241 -0.233500 0.161082 0.320797 -0.285312 -0.398643 -0.376275 0.474580 -0.486198 -0.053691 0.254480 0.083591 0.192862 0.203246 0.041395 0.435355 -0.952061 -0.038281 0.312545 0.287849 -0.139144 0.470068 0.464458 -0.348846 0.132722 -0.646124 0.139376 -0.069114 -0.337051 0.150210 -0.183213 -0.259987 -0.412981 -0.357109 0.274145 0.450901 0.167844 -0.266879 0.380662 0.335126 -0.640344 -0.311627 -0.067060 0.265654 0.531713 -0.294350 -0.196040 -0.071100 0.063385 0.040839 -0.403398 -0.488226 0.154776 -0.343623 -0.023587 0.263279 0.018149 0.180382 -0.038267 -0.240793 0.785905 0.499205 
5952 0.325944 -0.571197 0.411589 0.288601 0.486580 0.111994 -0.585318 -0.939521 -0.093946 0.037404 0.160817 -0.907744 0.120572 -0.110079 0.336853 0.101316 -0.518238 0.497171 0.223231 0.436573 0.505868 -0.236271 -0.174367 -0.913936 -0.380506 -0.427394 0.220691 0.238024 -0.138222 0.039327 0.086740 -0.203301 0.268200 0.397079 0.541392 -0.888024 0.249650 -0.324810 0.063381 -0.725117 0.151138 0.007649 -0.622198 0.434485 -0.208355 0.450172 0.045334 -0.634099 0.859495 0.070727 0.057412 0.389800 -0.262109 0.774281 0.119446 -0.326076 0.081643 0.198677 -0.329491 0.138835 0.260127 -0.776517 -0.509592 -0.017360 -0.396552 0.885866 0.099722 -0.136757 -0.774496 -0.275637 0.444207 0.127595 -0.001869 0.634653 -0.037054 0.212395 0.457154 -0.510784 -0.105287 0.444637 -0.331806 0.298268 -0.750194 0.547960 0.557157 -0.025823 0.425975 0.497348 -0.300767 0.320302 0.018166 0.505505 -0.482083 0.689800 0.319065 -0.688705 -0.030734 0.372495 -0.382852 0.241507 0.658461 1.127391 0.335418 -0.161924 0.017410 0.068094 0.029055 -0.336180 0.303185 0.151877 -0.377213 0.418170 0.087474 0.328419 -0.119117 0.536101 0.113166 -0.043565 -0.239373 0.681975 -0.035138 -0.115424 0.294631 -0.316068 0.159432 -0.182132 -0.194529 0.373030 
924 0.405904 0.588533 -0.025461 -0.461990 -0.119967 0.226632 0.129489 -1.147594 -0.596889 -0.252929 0.163528 -0.242241 -0.211177 0.028749 0.339555 -0.240594 0.081663 0.110925 0.487082 0.153594 0.246751 -0.602690 -0.003793 0.167572 0.091707 0.243925 0.077133 0.003339 -0.236720 0.006189 0.449754 0.144977 0.148464 -0.305980 0.137111 -0.240730 0.210542 -0.459214 -0.193261 0.219101 0.323812 0.022932 -0.316511 -0.890587 0.230018 0.284067 -0.097703 -0.375516 -0.307039 -0.289173 0.461306 0.438137 0.221601 0.144377 -0.558052 -0.054616 -0.213089 0.055078 0.416480 0.086256 0.533593 -0.081272 0.534649 0.176638 0.125044 0.051242 -0.477347 -0.188941 -0.577080 -0.073888 -0.008284 0.227991 -0.141622 -0.092155 -0.288330 -0.457296 0.768595 0.397024 0.499915 0.606300 0.090252 0.006492 -0.759277 0.214595 0.288391 0.082686 -0.157666 0.071270 0.883468 -0.045880 0.656019 0.077085 -0.171124 -0.129627 0.053826 -0.126809 -0.300641 -0.337570 0.295005 0.278492 0.478030 0.690330 -0.252835 0.203381 0.393216 0.257058 0.225862 -0.203936 -0.600789 -0.334840 0.252619 0.740371 0.333551 0.111337 0.703803 -0.748335 -0.011178 0.313224 0.128825 -0.679080 -0.215473 -0.107582 -0.328970 -0.095770 -0.285519 0.014054 0.324134 0.273743 
919 0.071968 0.327380 0.272134 0.016198 -0.115512 0.431146 0.145082 -1.031322 -0.613644 -0.169928 -0.323118 -0.573110 -0.438927 -0.132247 -0.210651 -0.113459 -0.004327 -0.314625 0.929022 0.184828 -0.159033 -0.180923 -0.311216 0.179875 -0.074175 0.246931 -0.133034 0.112017 -0.448464 0.063551 0.078832 0.438243 0.532311 -0.188660 0.388416 -0.217741 0.507446 -0.162208 -0.085470 0.549926 -0.465843 0.057796 0.282889 -0.597095 0.207043 -0.294602 0.683570 -0.615737 0.042097 -0.233202 -0.064183 0.544065 0.242501 0.033525 0.072024 -0.198295 -0.078340 0.654542 -0.392761 -0.294561 0.327902 -0.365612 0.084937 0.499850 0.132562 0.012400 -0.309265 -0.056971 -0.568405 -0.010174 -0.116979 -0.343143 -0.005445 -0.330285 0.373063 -0.157579 1.341225 0.181118 0.212315 -0.009251 0.215766 -0.050373 -1.205087 -0.130758 -0.269513 0.085917 -0.308650 -0.327116 0.642281 0.033296 0.697281 0.074484 0.386286 -0.169575 -0.100610 0.649794 0.166729 0.806339 -0.057902 0.124428 0.085535 -0.021788 0.123614 0.241704 -0.107333 0.350056 -0.273115 0.184922 -0.396869 -0.574356 0.183324 0.066577 0.053664 0.054984 0.405866 0.026017 -0.584360 -0.278566 0.068779 0.231660 -0.011259 0.324554 -0.207600 -0.621176 -0.001221 0.270514 -0.195953 0.618481 
357 0.077859 0.532506 -0.344182 0.056575 0.000823 0.411639 -0.427769 -0.731024 -0.196166 0.135078 0.619571 -0.173115 0.224627 0.301011 0.122480 0.185066 0.019663 0.067717 0.383875 0.151768 -0.571594 -0.144926 -0.596976 -0.797045 0.063866 0.128464 0.261827 -0.631299 0.126676 0.508839 0.015011 0.272634 -0.317106 -0.500606 0.446977 -0.276598 -0.101936 0.108321 0.153279 -0.063037 0.106031 -0.195395 0.046690 0.240818 -0.153061 0.176479 -0.160300 0.211402 0.396320 0.355069 -0.553732 -0.271437 0.099383 -0.420760 0.267991 0.198635 -0.547821 -0.133493 -0.577186 0.061118 0.504678 0.315768 0.455676 0.396542 -0.024173 0.412356 0.206430 -0.309606 -0.174549 -0.045023 0.102280 0.052882 -0.605662 0.055406 -0.194091 -0.510253 -0.181022 0.214292 0.036076 -0.082854 0.140526 0.312185 -1.066589 0.258894 0.010704 0.435421 -0.116826 -0.300217 0.892799 -0.400364 0.135260 0.247137 -0.463992 -0.278954 -0.092417 0.816612 -0.449591 0.244859 0.286736 0.140183 -0.245882 0.241115 -0.243114 -0.071116 -0.200195 -0.275586 0.335285 0.262424 -0.126164 -0.529577 0.186416 0.531888 -0.178813 0.167309 0.126009 0.548798 -0.398190 -0.557295 -0.343549 0.037577 0.089285 -0.112611 0.211328 0.135874 0.053742 -0.271894 0.128882 0.764736 
2716 -0.398812 -0.047508 0.030393 -0.162330 0.300397 0.279224 -0.119807 -0.557675 -0.039501 -0.178475 0.162979 -0.484204 -0.144692 -0.309348 -0.416819 0.329925 -0.234243 0.622642 0.030759 -0.315151 0.220129 0.778886 -0.575844 -0.197429 -0.315737 -0.198404 -0.070466 -0.188953 -0.162819 -0.122576 -0.262832 -0.083942 -0.275025 0.292975 -0.081376 -0.540883 -0.520507 -0.519098 0.434803 -0.671933 -0.238801 -0.072674 0.025657 -0.129543 -0.296811 -0.256881 0.164780 -0.075881 0.682521 -0.016980 -0.210769 0.994399 0.246542 0.477371 0.019037 1.183744 0.159786 0.304057 0.237987 -0.500157 0.160980 -0.233803 0.308848 -0.195107 0.142524 0.393155 0.569691 -0.020780 0.242425 -0.195392 -0.276648 -0.379182 -0.340702 0.408550 0.331091 0.072769 -0.071580 0.126964 0.159137 -0.255720 -0.043891 0.285521 -1.397988 -0.067040 0.007022 -0.359548 0.431091 -0.054236 0.312052 0.608075 -0.151786 0.096783 -0.244448 -0.668545 0.446143 -0.137713 -0.315508 -0.142358 0.106184 -0.288397 1.046916 0.056050 0.022152 -0.448927 0.465304 1.013742 0.239039 0.123701 0.212520 -0.082819 -0.032506 0.042939 -0.086486 0.377659 -0.318739 0.177867 -0.218286 -0.243131 0.207204 -0.134254 -0.855925 -0.150458 0.818001 -0.187438 0.406747 0.093578 0.658873 -0.287044 
539 0.256855 -0.315356 0.118034 0.020580 0.197303 0.160512 0.231556 -0.704775 0.299489 0.156040 0.382830 -0.494218 -0.145038 -0.049415 0.115827 -0.084169 -0.209970 -0.095659 -0.178469 0.497910 -0.044386 0.067307 -0.272834 -0.413924 0.219448 -0.049544 0.299595 -0.808341 0.073133 0.177873 0.226321 0.767556 0.107020 -0.333445 0.382935 -0.517816 0.251993 -0.334132 0.123096 0.028549 -0.190134 -0.038384 0.041014 0.103010 -0.085291 -0.044536 0.001108 0.294687 -0.328146 0.613263 0.638841 0.381703 -0.319588 -0.378345 -0.321742 0.325695 -0.515440 0.120988 -0.561778 -0.213911 0.803091 0.490414 -0.036286 0.442691 -0.092116 0.325026 0.630001 -0.063026 0.048873 0.037108 -0.757420 0.073135 -0.155802 -0.342573 0.427682 -0.711508 0.515085 0.440660 0.237415 0.226029 0.450327 0.738566 -1.434395 -0.410018 0.167679 0.106163 0.316079 0.299484 0.515741 -0.593502 -0.562272 0.255442 -0.059864 0.094579 0.426943 0.068162 0.411592 0.654020 0.125893 0.082673 -0.166084 0.187104 0.178170 -0.059591 0.282652 -0.260636 -0.154960 0.338010 -0.243928 -0.533171 0.118895 -0.189083 0.085268 0.777140 0.941780 -0.419436 -0.057271 -0.102124 0.035123 -0.177758 0.123654 -0.133307 -0.016475 -0.525550 0.434649 -0.285615 0.325603 0.715404 
4226 0.338319 -0.493898 0.633484 0.397137 0.508998 0.335341 -0.378985 -0.810725 0.617155 -0.520763 -0.395708 -1.238083 1.028674 -0.275469 -0.488102 0.249148 0.348979 -0.088735 0.368311 0.554657 -0.620565 0.087146 -0.695499 -0.014577 0.423493 0.343674 0.224485 0.145436 -0.407181 0.191147 -0.047588 0.155952 0.201284 0.298069 0.403535 -0.722878 -0.155608 0.195894 0.551627 -0.239679 0.546099 0.469728 -0.094128 -0.189351 -0.498111 0.182548 0.168518 -0.028465 0.914419 -0.718496 -0.203657 -0.298592 -0.044543 0.604514 0.081635 -0.514063 0.078805 0.043411 0.326700 -0.202375 0.264535 -0.200482 -0.247018 0.305620 -0.617368 -0.057663 0.161943 0.473419 -0.020408 -0.118883 -0.191472 -0.150993 -0.056083 0.310595 -0.241547 -0.298531 0.188380 0.169984 0.016766 0.354061 -0.182301 0.141881 -1.222147 0.562593 0.336612 -0.409240 -0.033738 -0.125478 0.198715 0.675589 -0.513314 0.244344 0.346790 0.131757 0.416666 -0.676671 0.161363 0.560092 -0.302691 0.357294 0.209882 -0.088769 -0.325560 0.346419 0.056048 0.004915 0.053343 -0.659166 0.658376 -0.163684 -0.230562 -0.214039 -0.433910 -0.262150 0.191399 -0.355445 -0.695753 0.010398 0.113542 0.692299 0.673387 0.606305 0.303509 0.136648 0.625478 0.104946 0.262213 -0.332212 
592 0.266807 -0.331906 0.217475 -0.039367 -0.170074 0.431298 -0.289118 -1.259814 -0.058160 0.025862 -0.224426 -0.205059 -0.018288 -0.615423 0.135917 -0.046797 -0.283053 0.214245 0.617649 0.191385 0.038625 0.116103 -0.190797 0.127641 -0.027074 0.358027 0.139783 -0.599900 0.011800 0.065067 0.223133 0.120281 0.280447 -0.487662 0.481033 -0.678214 -0.116505 -0.027523 0.177924 0.444738 -0.274374 0.326385 -0.255378 -0.593873 -0.364765 -0.291925 0.540394 0.134734 -0.063080 0.092424 -0.209269 -0.031771 -0.160803 -0.366989 0.063675 -0.158859 -0.216909 0.115204 -0.108429 -0.041451 0.634317 -0.182091 0.042125 0.413507 0.161345 0.395547 0.173038 -0.528105 -0.421286 0.327624 -0.330709 -0.205933 0.078221 -0.081289 0.438460 -1.575714 0.050781 0.064673 -0.018153 0.306615 -0.159803 0.453386 -0.854744 -0.082087 -0.240424 -0.550693 0.441965 -0.271957 0.418568 -0.339576 -0.024471 0.381828 0.266738 0.039025 0.325956 0.009529 -0.140772 0.484849 0.135964 0.583255 0.421220 0.366655 -0.224057 -0.689720 0.610312 -0.181624 0.261643 0.265895 -0.343066 -0.549288 0.256458 -0.002776 0.286415 -0.125918 0.928488 0.104474 0.318153 -0.294460 -0.503186 -0.379805 -0.180320 -0.305105 0.363553 -0.112992 0.252012 -0.038359 0.638248 0.237373 
912 0.408409 0.260665 0.000142 -0.011067 -0.169999 0.117227 0.064462 -1.249008 -0.486604 -0.011999 -0.213805 -0.419644 -0.632946 0.033182 -0.295899 0.300100 -0.270730 0.004284 0.667575 -0.049331 -0.256874 -0.138329 -0.181890 0.019300 -0.244987 0.228438 0.394359 -0.344435 -0.377394 0.307699 0.333293 0.155803 0.644286 -0.516848 0.454906 0.188596 0.522590 -0.402930 0.221350 0.236363 0.233868 -0.128562 0.420785 -0.527952 -0.182931 -0.216922 -0.183493 0.155396 -0.319343 -0.499494 0.348525 0.087133 0.022146 0.476944 -0.519944 -0.792676 -0.253350 0.280317 -0.297741 0.080291 0.147471 -0.455590 0.543917 -0.050179 0.412128 -0.040425 -0.297340 -0.255117 -0.173072 -0.057783 -0.341357 -0.083666 -0.371013 -0.028160 0.189382 0.023412 0.714511 0.455118 0.262081 0.010733 0.165060 0.325163 -1.137495 0.025037 -0.093988 0.512324 0.356967 0.260732 0.639191 0.287672 0.477611 -0.269146 -0.109655 0.162299 -0.026257 0.420051 -0.387546 0.134530 -0.158782 -0.377900 0.241166 0.392720 0.479442 -0.613190 0.095007 0.800519 0.173407 -0.062252 -0.094614 -0.742278 0.285720 0.652415 -0.100326 0.035162 0.627434 -0.608631 0.191649 -0.078828 -0.167324 -0.096110 -0.448199 -0.053234 -0.237941 -0.229100 0.513895 -0.019714 0.436521 0.732282 
165 0.569509 0.507542 -0.114119 -0.101524 0.551767 -0.293336 0.148862 -1.043501 -0.179326 0.393357 0.522970 -0.898828 0.040271 -0.392494 -0.012831 -0.092977 -0.078110 -0.295962 -0.024436 0.020927 -0.246306 -0.194226 -0.362074 -0.226668 0.114442 0.098496 0.499539 -0.920118 -0.144708 -0.254518 0.569173 0.124212 -0.430167 0.027167 0.175091 -0.254685 -0.575983 -0.104926 -0.009452 0.042533 -0.232334 -0.043984 -0.188677 -0.308835 0.155785 -0.157371 -0.373743 0.472901 0.406164 0.009623 0.352465 -0.339365 -0.018507 -0.133586 0.247720 -0.230773 -0.600107 -0.164154 -0.033440 0.211641 -0.247927 -0.333824 -0.017390 0.360140 -0.317183 0.407381 0.507527 -0.293181 0.045309 -0.015211 -0.465380 -0.040108 0.006830 0.161751 0.099481 -0.105287 -0.029663 -0.117914 -0.084952 0.538116 0.157645 -0.581308 -1.197426 0.256271 0.069957 0.041060 0.191418 0.283092 0.987798 -0.326061 -0.193086 0.622846 -0.026387 -0.585096 -0.456271 -0.142470 0.187601 0.104507 0.583432 0.030611 0.128237 0.454460 -0.706656 0.420230 0.315310 0.116106 0.236711 0.169933 -0.141095 0.585093 0.175644 0.366202 -0.240648 0.008995 0.492151 0.227927 0.196486 -0.216150 -0.122855 0.238616 -0.453971 -0.317332 0.188665 0.699522 -0.344115 0.168382 0.226460 0.449654 
1206 0.028398 0.117133 0.598531 0.016304 -0.505152 -0.147199 0.071893 -1.380907 -0.461556 0.039092 0.744877 -0.599899 -0.562122 -0.520763 0.162373 0.307300 0.459761 -0.202015 0.649076 0.023012 -0.319055 0.051044 -0.030657 -0.434088 -0.119267 0.089431 -0.357564 0.005084 0.287099 0.596760 -0.627519 0.309300 0.211126 0.076099 0.154212 -0.082516 0.086112 0.080320 -0.369261 0.092893 0.428287 0.376537 0.123216 -0.341228 -0.112203 0.001965 -0.043418 -0.231759 0.413758 0.086785 -0.029848 0.165056 -0.580392 0.195609 -0.632777 0.453762 -0.016943 -0.128266 0.412031 -0.011205 -0.237931 -0.100576 -0.039512 -0.203465 0.077181 0.911906 -0.061095 -0.763576 0.225798 0.320742 -0.387067 0.339953 -0.007784 0.008614 -0.105482 -0.393691 0.843786 0.208452 0.247397 0.649847 -0.374862 -0.234738 -0.501366 0.296748 0.238094 0.057186 -0.059099 -0.102905 0.841733 0.259905 0.640189 -0.038227 0.200729 -0.084167 0.036345 0.365234 0.215431 -0.320220 -0.167041 -0.502264 0.862843 0.128948 -0.467524 -0.261871 0.276615 0.658982 -0.215501 -0.062802 0.340715 0.022094 -0.013851 0.174529 0.270145 -0.570019 0.609281 -0.441400 -0.002541 -0.056514 -0.046800 0.323343 0.041296 0.274499 0.458013 -0.136819 0.065777 -0.442604 0.646136 -0.136765 
17 0.298296 0.038662 -0.131143 -0.040550 0.202250 -0.117919 -0.498397 -0.731410 -0.070248 0.212103 0.200087 -0.821631 -0.119327 0.111615 0.061966 -0.236404 0.136399 -0.402393 1.105184 0.558376 0.257728 -0.056504 0.009623 0.293217 -0.069289 -0.078187 0.103661 0.337546 0.242385 0.457292 0.370418 -0.115610 -0.239694 -0.057353 0.358069 0.415594 0.469911 0.149287 0.311208 0.504507 0.149225 -0.893284 -0.228913 -0.119085 0.403413 -0.184153 -0.754927 -0.413139 0.208273 0.543515 -0.288638 0.217908 0.195002 0.077192 0.262271 0.328831 -0.802799 -0.087945 -0.314771 -0.149105 -0.507186 0.395559 0.039391 0.714798 0.071674 0.797406 0.344244 0.074895 -0.389042 0.026091 0.184167 0.266185 -0.114949 -0.004762 -0.231178 -0.325544 0.173923 0.156263 -0.414522 -0.258895 0.783343 -0.289612 -1.650704 0.142369 0.118552 0.145096 0.161318 -0.096497 0.583443 -0.159594 0.356218 0.274234 0.514230 -0.274632 -0.244355 -0.146932 0.146885 0.179852 0.488566 0.072419 -0.196257 0.530958 0.649171 -0.609290 -0.434829 0.498517 -0.102783 0.595445 0.307141 -0.256225 0.188293 0.274991 0.227475 0.712957 0.155340 0.168009 -0.236191 0.408036 0.239224 0.784786 0.206509 -0.149797 0.009136 -0.096484 0.330987 -0.234987 -0.014234 -0.360703 
597 0.469540 -0.346390 -0.053654 -0.382623 -0.080363 -0.601546 0.046696 -0.963103 -0.197112 0.310654 0.491658 -0.403412 -0.000201 -0.084117 0.359455 0.402776 -0.132050 0.222156 0.641161 0.154690 -0.209902 0.113226 -0.053247 0.135589 0.472547 0.005406 0.402385 -0.212952 0.389591 -0.022021 0.682135 -0.161523 0.496249 -0.997666 0.294555 -0.386683 -0.155568 0.225431 0.298400 -0.240631 -0.522849 0.120790 0.057554 -0.603104 -0.461285 -0.283088 0.352284 -0.370719 -0.284791 0.398045 0.206457 0.243870 -0.246875 -0.789286 -0.261733 0.096669 -0.378925 -0.205709 -0.670096 0.135441 -0.003665 0.141017 -0.073980 0.011507 0.126012 0.242707 0.372202 -0.822349 -1.210927 -0.634344 -0.234029 0.040886 -0.255354 0.163886 0.145678 -0.509884 -0.038593 0.099452 0.054875 0.221776 0.616405 0.782456 -0.717673 -0.294166 0.121225 -0.250153 0.182958 0.174190 0.027243 -0.188427 0.033449 0.248148 0.224439 -0.005743 0.293220 -0.002410 0.748170 0.152649 0.189943 0.019824 -0.245837 0.728726 -0.030896 -0.134623 0.476953 0.236337 -0.559126 -0.069091 -0.131426 -0.568080 0.234793 0.340817 -0.253532 0.036103 0.406090 -0.328965 -0.662276 0.111211 -0.229076 -0.205767 -0.097538 -0.559522 -0.075414 -0.553874 -0.056863 -0.447291 0.638924 0.643008 
1208 0.360252 -0.018488 0.153706 -0.087722 -0.093471 -0.353901 0.090759 -1.552515 -0.602822 -0.205118 -0.392941 -0.701514 -0.424704 0.013461 0.303149 0.499021 0.181391 -0.375121 0.847274 0.458528 -0.441201 0.012669 -0.433323 -0.486298 0.176292 -0.321701 0.030591 0.049255 -0.031602 0.163280 -0.766530 0.329307 0.270311 -0.171256 0.441924 -0.144505 0.285239 -0.302541 -0.220760 -0.636235 0.583310 0.276292 0.170018 -0.111015 -0.430445 0.396754 -0.334219 -0.078429 -0.006552 0.224768 0.173859 0.001587 -0.200532 -0.088450 -0.407818 0.368627 0.298779 -0.059284 0.502245 -0.109390 -0.269967 0.208119 -0.475305 0.547355 -0.006328 0.568480 -0.376856 -0.172089 0.086911 0.643489 0.024133 0.240861 -0.007407 0.092139 -0.360592 0.156903 0.763873 0.200547 0.469949 0.402427 0.085331 0.245400 -0.619311 0.091982 0.016940 0.046862 0.175596 -0.414883 0.947410 -0.257926 0.494020 0.106947 0.484672 0.115447 0.216485 -0.270357 0.217751 -0.457292 0.125941 0.010222 0.563653 -0.100715 0.223212 0.162737 0.467738 0.432534 0.099521 -0.309075 0.586034 0.282156 -0.496009 0.214853 0.170885 0.389515 0.464137 0.099878 -0.507209 -0.332190 0.493266 0.148144 -0.252643 -0.217327 0.282186 -0.615606 0.460724 -0.378762 0.653071 -0.479678 
2997 0.219368 -0.822260 -0.351853 0.305242 -0.203843 0.484519 -0.295377 -0.146853 -0.124022 -0.270029 -0.198190 -0.643033 0.626852 -0.941324 -0.119699 -0.253392 -0.444154 0.558158 0.349922 -0.026968 0.012655 0.348059 -0.012441 -0.274739 0.138764 -0.483967 0.050148 -0.369848 -0.078092 0.132259 -0.512746 -0.585909 -0.211731 -0.345309 -0.168234 0.391752 -0.095434 -0.443748 -0.135834 -0.763980 -0.112637 0.107289 0.221175 0.072614 -0.439005 0.363905 -0.141132 -0.108829 0.564629 -0.541586 0.251950 0.238847 -0.103370 -0.101053 0.013862 0.052788 0.136472 0.511164 0.229982 0.446684 -0.222134 -0.256774 0.170452 0.211106 -0.086849 0.175720 0.388370 -0.703413 -0.089472 -0.150107 0.067820 -0.175471 0.338137 0.771228 0.248818 -0.896914 0.685459 0.034915 0.365160 0.115414 0.378683 0.387730 -0.820064 0.010583 0.112513 0.023027 0.050950 0.302192 0.670281 0.004562 -1.076228 -0.101949 -0.209009 -0.486221 0.391737 -0.123062 -0.262816 0.038249 -0.479141 0.234714 0.020527 -0.202558 0.012641 -0.118069 0.055941 -0.007500 -0.165861 -0.335581 -0.090741 -0.294209 0.350812 0.798550 -0.369984 0.234665 -0.412359 -0.028500 -0.614187 -0.319643 0.568297 0.522798 0.210491 0.606845 0.673811 -0.186188 0.214696 0.012601 -0.027344 -0.790356 
750 0.165234 -0.146370 -0.522958 0.488597 0.220702 0.329232 -0.125768 -0.897970 -0.128815 0.229080 -0.105685 -0.408694 -0.612436 0.296752 0.235549 0.211268 -0.065478 0.327078 0.682301 -0.006571 -0.184849 0.009470 0.195945 0.092645 -0.151054 0.265951 0.256937 -0.589098 -0.919863 0.286889 -0.111221 0.206267 0.399578 0.129818 0.154783 -0.589404 -0.052423 -0.296742 0.279410 0.665426 0.467912 0.519068 -0.272227 -0.494967 -0.324598 -0.467306 -0.115130 -0.641344 -0.348541 -0.285128 0.411339 0.041482 -0.574814 -0.462760 -0.368912 -0.168632 -0.391398 0.051998 0.064750 -0.891786 0.256111 -0.516108 0.386037 0.237190 0.254424 0.339145 -0.033434 -0.516134 -0.129218 0.409588 0.559557 0.476494 -0.222443 0.279193 0.044444 -0.684422 0.659149 0.368958 0.245649 0.329168 0.106320 0.147372 -0.362540 0.347114 -0.033041 0.244011 0.312779 0.266410 0.657670 0.262527 0.321426 0.009560 0.161280 -0.152876 0.156811 0.648150 0.402561 0.740189 -0.224662 0.585407 0.021526 0.310217 0.032058 -0.472667 0.423377 0.338950 -0.447033 0.275520 -0.214064 -0.150344 -0.019395 0.295032 -0.045735 0.060459 0.291204 0.174523 -0.467786 0.351478 -0.232911 -0.542285 -0.161124 -0.331037 0.038871 -0.224886 -0.023279 0.011183 0.502916 0.537932 
6 0.366385 0.556033 -0.566670 -0.625715 0.459121 -0.513696 -0.461400 -0.978362 -0.296387 0.090184 0.057777 -0.620888 -0.017868 -0.410033 0.353274 -0.425720 0.311251 0.286040 0.864421 0.116615 -0.054855 0.118262 0.328013 -0.304700 0.023957 0.746942 0.280580 -0.228294 -0.508673 -0.222643 0.877193 0.096485 -0.470802 0.353104 0.180033 -0.316376 0.030716 0.593082 0.351000 0.048803 0.145885 -0.082186 -0.446712 -0.008159 -0.372721 -0.032023 0.367031 -0.053757 0.336602 0.358067 -0.461523 -0.068411 0.113766 -0.324496 0.049151 0.154863 -0.285733 -0.236628 0.526172 0.539502 -0.402467 0.681406 -0.422095 0.847356 -0.322692 0.241161 0.799129 -0.195119 0.046056 -0.581546 -0.049389 -0.627142 -0.778528 -0.363333 0.347344 -0.430145 0.461800 0.370118 -0.307733 -0.193043 -0.011645 -0.169498 -1.324103 -0.300460 -0.050803 0.186869 -0.168991 -0.399637 0.910125 0.168789 0.340245 0.065544 -0.065372 0.298366 0.399717 0.084183 0.201586 0.296214 0.109860 0.412546 0.234528 0.423533 -0.155187 -0.298364 -0.079187 0.240304 -0.438853 0.122912 0.342686 -0.090962 0.034480 0.654734 0.203546 0.339930 -0.012965 0.006545 0.710573 0.349712 -0.210642 0.297806 -0.719827 -0.156475 0.129164 0.319738 0.089192 -0.105776 0.225088 -0.050121 
293 0.610932 -0.028392 -0.080295 0.085627 0.049001 -0.470261 -0.006560 -1.164075 -0.771596 0.204758 0.004371 -0.241587 0.409540 0.226835 0.149273 0.263456 0.067344 -0.231108 0.202414 0.378315 -0.776021 0.334289 0.159276 -0.438719 0.504565 0.023077 0.075758 -0.003751 0.330248 0.337878 0.104101 0.105060 0.176656 -0.091783 -0.026315 -0.274107 0.394269 -0.195599 0.297804 -0.166945 -0.015169 0.378760 -0.043040 -0.232132 0.309249 -0.607531 -0.017649 0.773845 0.176355 -0.009076 -0.417988 -0.176741 -0.192832 -0.210175 0.161169 -0.168515 -0.032515 -0.240170 0.363260 0.079849 0.074420 -0.447235 0.482943 0.545341 0.399163 0.314439 0.144314 -0.279457 0.195369 -0.155423 -0.326605 0.489898 -0.413514 0.003961 -0.228265 -0.616323 -0.259324 0.532809 -0.175697 0.268466 0.272597 -0.104013 -0.908793 0.227270 0.021249 0.255298 -0.256755 0.000578 1.154754 -0.168324 0.028840 0.905629 0.118768 -0.009329 -0.378784 -0.028984 0.030293 0.415321 0.359797 0.193241 -0.300953 0.571126 -0.218624 0.103784 0.501175 -0.046924 0.031005 0.637409 -0.430065 -0.220836 0.378917 0.307659 -0.378756 -0.193741 0.369196 0.034652 0.391634 -0.045077 -0.546525 0.364379 -0.328870 -0.333808 0.153359 0.269868 -0.104448 -0.008589 0.199677 -0.072510 
25 0.539083 0.253794 0.123334 0.143551 0.079318 0.037408 0.131062 -0.380653 -0.519452 -0.167618 0.099867 -0.364563 -0.228711 -0.585720 0.108351 -0.315419 0.146232 -0.097733 1.165526 0.197461 0.167341 0.387960 0.120337 0.176724 0.480238 0.348251 0.077796 -0.236206 -0.407036 0.200289 0.344226 0.053541 0.165147 0.157737 0.171636 -0.172406 -0.031926 0.384625 0.163192 -0.098438 0.053408 -0.071884 -0.161146 -0.205922 0.085310 0.048974 -0.360856 0.105187 0.299830 0.137273 -0.294412 -0.559804 0.283581 -0.255911 0.220448 0.123110 -0.284598 -0.020320 -0.155907 0.552373 -0.754707 0.094325 -0.417751 0.511478 0.090086 -0.039405 0.453535 -0.056760 0.201860 -0.346451 -0.203843 0.163035 -0.540666 -0.301248 -0.163857 -0.200944 -0.076276 0.156758 -0.293971 -0.156856 0.397343 0.097555 -1.210353 0.277098 0.275758 0.391780 0.292601 0.419136 0.735820 0.095185 0.432695 0.086490 0.043778 -0.326961 -0.103249 -0.359379 -0.379990 0.123782 0.313186 0.607037 0.280616 0.714187 -0.201233 -0.248222 -0.263392 0.286084 -0.512384 0.749068 0.158908 0.056801 -0.100795 0.630615 0.121991 0.753815 0.525452 0.383588 0.381263 -0.086025 -0.071119 0.343279 0.020040 -0.061903 0.011338 0.346829 0.191949 0.072332 0.210121 -0.120079 
778 0.720771 -0.160377 -0.104293 -0.070900 -0.258450 0.201162 -0.047934 -0.749405 -0.241677 -0.058079 -0.380375 -0.619411 0.334095 0.214221 0.360530 0.109135 -0.310520 0.201418 0.838505 0.241050 0.021508 -0.160341 0.100338 0.170886 -0.113738 0.582163 0.046510 -0.321602 0.191315 0.155498 -0.324550 0.013113 0.830808 -0.499813 0.220583 -0.144000 0.438781 -0.046745 0.171513 -0.198012 -0.297121 0.662667 -0.160965 -0.324189 -0.067497 -0.065564 0.020118 -0.061498 0.173341 0.033588 0.059170 -0.676493 0.023589 0.117417 -0.552297 -0.096446 -0.305204 0.293612 -0.208340 -0.618667 0.202243 -0.086083 0.135225 -0.087624 0.203749 0.235038 0.680320 -0.866684 -0.393263 -0.258997 0.091266 0.388808 -0.490492 -0.402245 -0.370011 -0.353391 0.368353 -0.064695 0.091934 0.093492 0.193168 0.040327 -0.580206 0.415212 0.065892 0.251158 -0.222356 -0.014417 1.751492 -0.270855 0.500476 0.376242 0.398730 0.398290 -0.074342 0.650804 0.137619 0.126939 0.228898 0.399970 0.151462 0.303526 -0.187730 -0.260248 -0.079837 -0.225692 0.100233 0.276101 -0.456891 -0.790154 -0.406653 0.310388 0.210858 0.190460 0.465349 -0.035746 -0.749070 0.399401 -0.060240 0.092303 0.011429 -0.124078 -0.482717 -0.324321 -0.038623 0.105439 0.702949 0.028809 
1080 0.234387 -0.026330 0.101621 -0.875742 -0.481367 -0.253620 0.360966 -0.988587 -0.276483 0.034828 -0.423572 -0.273647 -0.174299 0.367486 0.395357 0.240298 0.374389 0.199466 0.599352 0.383727 -0.553859 -0.066339 0.471861 -0.127223 0.086180 0.032679 0.085197 0.005482 -0.275890 -0.026429 -0.939630 0.377406 0.805768 -0.345434 -0.429547 -0.439852 0.297622 -0.323976 -0.041035 -0.548974 -0.345528 0.454828 -0.379182 0.176238 0.208431 -0.344657 0.034801 -0.231791 -0.030679 -0.413287 0.285713 -0.102929 0.419869 -0.348764 -0.287037 0.476974 0.412677 -0.204294 -0.130430 -0.107318 -0.041813 0.551130 0.659112 -0.205968 -0.292630 0.544602 -0.019808 -0.244499 0.138719 -0.015882 -0.299103 0.072544 -0.126165 -0.670949 0.282917 -0.326804 0.362508 0.384069 0.650084 0.624168 -0.328377 -0.208530 -1.009623 0.519331 0.166420 -0.403714 0.032274 -0.169466 0.796882 0.503473 0.121519 0.045160 0.252189 -0.107460 0.009805 0.345604 -0.167011 0.311415 0.427285 0.011213 -0.417619 0.386085 0.252257 -0.037241 0.578586 0.538981 0.339024 -0.294311 -0.270909 -0.415997 0.049718 0.329239 -0.069332 0.334847 0.430140 -0.328178 -0.259802 -0.046754 -0.356947 -0.467250 -0.174631 -0.085407 0.146440 -0.662237 -0.488217 -0.000492 0.161274 -0.112181 
648 0.258998 0.050111 -0.082442 -0.170472 0.107105 0.123516 -0.283624 -0.929689 -0.514489 -0.088809 -0.464225 -0.353035 -0.195516 0.288544 -0.066051 -0.303563 -0.294162 -0.015753 0.450031 0.458560 -0.384017 -0.139047 0.105232 -0.152157 0.180647 0.239918 -0.116958 -0.974155 0.481673 -0.158966 0.297041 0.289184 -0.038752 -0.586904 0.445774 -0.436294 -0.035126 0.290711 0.323459 0.277102 -0.132188 -0.106143 -0.236807 -0.835601 -0.072138 0.228130 0.090217 -0.082390 -0.823476 0.266197 0.370687 -0.115089 0.188869 0.289214 0.000155 -0.252442 -0.642199 0.161234 -0.508446 -0.110555 -0.482561 0.051430 -0.236498 0.154123 -0.143689 0.412193 0.188391 -0.573177 -0.316553 0.038773 -0.220840 0.443753 0.179716 -0.412624 0.383493 -0.436932 0.438363 0.174503 0.014915 0.687609 -0.126787 0.609244 -0.663200 0.066986 0.000768 0.241766 0.422852 -0.196164 0.983792 -0.388385 0.165691 0.297158 0.052929 -0.305857 0.041698 -0.124505 0.208596 0.588454 -0.235430 -0.300127 0.058244 0.759083 0.119682 -0.470357 0.102889 0.144858 -0.151443 -0.140671 0.488504 -0.116397 0.233304 0.308976 0.126900 -0.388381 0.265160 -0.230178 -0.174307 0.694027 0.008670 -0.436492 -0.366581 -0.028250 0.051801 -0.386162 0.182871 0.228862 0.221438 0.822899 
